svm_type c_svc
kernel_type rbf
gamma 1
nr_class 10
total_sv 1255
rho -0.122416 -0.075862 -0.184115 -0.0826297 -0.0920835 -0.281123 0.000732117 -0.445625 -0.122941 0.0986191 -0.242417 -0.326994 0.0555357 -0.18513 0.0148624 -0.515931 -0.0258186 -0.251874 -0.099754 -0.0425853 -0.223868 -0.0468641 -0.468684 0.0327492 -0.0703251 0.205147 -0.00827652 0.182771 -0.512096 0.0612531 -0.0084384 0.0481256 0.299054 -0.327289 -0.0413145 -0.223616 0.0528028 -0.633668 0.00827807 0.15276 -0.179707 0.0599786 -0.383111 -0.645302 0.456407
label 0 1 2 3 4 5 6 7 8 9
nr_sv 84 69 128 144 131 124 94 135 180 166
SV
0 1.822340341447864 0 0 0 0 0 0 0 8:0.00060421722 9:0.0024076029 10:0.12014553 11:0.00025895024 17:0.081670298 18:0.50791955 19:0.26235195 20:0.18010809 27:0.11746753 29:0.02789153 30:0.043584874 33:0.024952975 34:0.17443364 35:0.34882268 36:0.37852158 37:0.078649486 38:0.032344717 39:0.15958344 40:0.510221 41:0.32985227 42:0.022237676 43:0.0081932735 44:0.38518315 45:0.48849274 47:0.12908697 48:0.76215078 49:0.094922973 50:0.062359179 51:0.079714472 52:0.14864119 53:0.16003739 57:0.0078067759 59:0.0055972932 60:0.54327964 64:0.19284957 67:0.28907276 68:0.60706031 69:0.012351689 72:0.046265293 76:0.20478239 
0 0 0 0 0 0 0 0 0.9634220594012139 8:0.0051790047 9:0.042550968 10:0.091858523 14:0.037109377 17:0.0019852852 18:0.32681283 19:0.23090501 20:0.023077773 24:0.0084184276 27:0.0096369854 29:0.20704905 30:0.1000865 31:0.12658945 33:0.041801998 34:0.26391949 35:0.36536364 36:0.037407431 37:0.10804041 38:0.01226887 39:0.020580526 40:0.27493897 41:0.24242158 44:0.0012084344 45:0.039855536 46:0.1044292 47:0.21024701 48:0.26374932 49:0.15038665 50:0.042742882 51:0.17455207 52:0.25302382 53:0.15592415 54:0.02479442 55:0.0080032894 60:0.23332267 64:0.33769152 67:0.0095375122 68:0.48799359 69:0.026709421 72:0.09991974 74:0.0051109427 76:0.22974306 77:0.0013510708 81:0.062319614 
0 0 0 0 0 3.042910267922032 0 0 0 8:0.00043158373 9:0.049675944 10:0.19830468 17:0.00077685071 18:0.26830647 19:0.073788434 20:0.01175176 28:0.06668414 29:0.058936464 30:0.02289933 31:0.14584276 32:0.11099274 33:0.026671874 34:0.077719616 35:0.30333174 36:0.21674275 37:0.14281779 40:0.0012084344 41:0.82789157 43:0.013347874 44:0.085246474 45:0.62695565 46:0.051597274 47:0.35958694 48:0.24323384 49:0.17061038 51:0.15912802 53:0.16447049 54:0.058701588 59:0.14894509 60:0.086578744 61:0.0039677546 64:0.014256903 68:0.50711258 70:0.010009766 72:0.045832114 76:0.18322602 
0 0 0 0 0 0 0 1.566746757006093 0 8:0.010012743 9:0.10390818 10:0.075650423 14:0.22810367 17:0.00025895024 18:0.70817115 19:0.27069081 20:0.14431098 24:0.056481619 29:0.090388972 30:0.17325259 31:0.22178701 34:0.28222486 35:0.62233578 36:0.0032811719 37:0.381116 38:0.14717938 39:0.038420862 40:0.35357948 41:0.26878384 42:0.061292855 43:0.038479612 44:0.041179511 45:0.17101984 46:0.011024801 47:0.26785491 48:0.46245183 49:0.015054532 50:0.00057903033 51:0.073459622 52:0.37137512 53:0.22967317 54:0.060047619 55:0.057293516 56:0.032927548 57:0.0054208016 58:0.015608302 59:0.23847483 60:0.16125443 61:0.10057737 63:0.045457549 64:0.094737208 66:0.025602841 67:0.1130745 68:0.50430963 69:0.081740715 72:0.02676518 73:0.013422462 76:0.28547475 
1.385592883205267 1.146847254663697 0 1.315588274965506 1.435555605242668 1.563586587209443 1.430888679159339 0 0.7633147949021198 8:0.10299553 10:0.12464346 12:0.012654459 13:0.15546886 14:0.19964316 15:0.068147017 17:0.090753907 18:0.40127973 19:0.055014031 20:0.17409593 21:0.030556616 23:0.027454832 25:0.03604197 29:0.0097840227 33:0.060172856 34:0.21726872 35:0.16591575 37:0.03410309 38:0.092887051 39:0.19638315 40:0.17473819 41:0.079985672 42:0.010005314 43:0.055378091 44:0.071878259 45:0.04205355 47:0.0089590492 48:0.39094886 49:0.003807398 52:0.20472986 53:0.062538452 54:0.0021440635 60:0.016658485 61:0.25410354 63:0.0074152063 64:0.18636169 65:0.23656735 66:0.087755516 67:0.21992947 68:0.20693243 69:0.23913823 70:0.024411774 71:0.16364308 72:0.12624622 75:0.13558722 76:0.033679195 
0.9015567124011488 0.5080123162636865 0 0.7413612533635355 0 0 0.9775481657911018 0 0 4:0.10609497 5:0.016265382 7:0.016666063 8:0.26842419 9:0.30932339 10:0.49470718 14:0.65850078 15:0.11123228 18:0.44255614 19:0.13632072 20:0.33705074 24:0.024511828 29:0.37135803 30:0.27304701 31:0.050915004 32:0.0019301011 33:0.024810546 34:0.85903617 35:0.017144694 37:0.068015842 38:0.25570141 40:0.006653112 41:0.087861986 42:0.11175811 43:0.058674427 44:0.0029347694 46:0.0021651164 47:0.38712473 48:0.49488469 49:0.020812825 50:0.0013510708 52:0.7035678 53:0.042110631 60:0.3708491 64:0.42837476 65:0.09995255 67:0.02543763 68:0.41330254 69:0.57916929 70:0.039216009 71:0.015118003 72:0.22467988 75:0.37128594 76:0.3737759 77:0.038139501 80:0.18993992 81:0.030456604 
0 0 0 0 0 0 0 1.583433035118375 0 8:0.063769971 9:0.016481979 10:0.095191019 13:0.17992558 14:0.21352749 15:0.03359208 17:0.13590491 18:0.46906813 19:0.14540257 20:0.21045629 21:0.10755144 23:0.0059062355 24:0.048079667 25:0.058267576 27:0.017029793 30:0.3043203 31:0.05800801 34:0.24451756 35:0.51351836 38:0.024577699 39:0.18823915 40:0.36183493 41:0.0059833134 42:0.014251676 43:0.055354217 44:0.34953009 45:0.11518042 48:0.65728336 49:0.014321569 51:0.0052681508 52:0.18050514 53:0.086628198 55:0.073637994 57:0.021301357 58:0.029323312 59:0.046375876 60:0.19365716 61:0.23705501 62:0.10031216 63:0.0095421981 64:0.2488409 65:0.0016400182 66:0.041447536 67:0.61380506 68:0.26767512 70:0.014559156 71:0.28111889 72:0.092809353 75:0.053426161 76:0.070975296 
0 0 0 1.811571996223732 0 0 0 0 0 11:0.0018148082 12:0.0064273561 13:0.066853721 14:0.061180462 15:0.00051790047 16:0.0062620981 17:0.081637916 18:0.50719189 19:0.10071387 20:0.17960554 21:0.1034116 24:0.057043291 26:0.010717885 27:0.096275858 29:0.0093166123 30:0.021341194 31:0.023656458 34:0.14188523 35:0.38616656 37:0.052420998 38:0.099315061 39:0.28080129 40:0.64018789 41:0.024724136 42:0.031723371 43:0.049997509 44:0.64836718 45:0.38827596 48:0.58244467 49:0.17441476 50:0.0029763636 52:0.16156316 53:0.12187932 55:0.027299136 57:0.0086910291 59:0.17872623 60:0.11645138 61:0.086135651 62:0.083436209 63:0.014278835 64:0.05439 67:0.48804346 68:0.30544865 71:0.015996801 72:0.15600542 76:0.044389417 
0 0.8166376698452035 0 0 1.010075619603906 1.498648066227384 0 0 0 8:0.049468598 9:0.32929214 10:0.55817509 11:0.0022508653 13:0.035119143 14:0.13160819 15:0.0052815693 18:0.36584736 19:0.22762626 20:0.090342616 29:0.033214387 30:0.11898802 32:0.00096505056 33:0.21061772 34:0.53501912 35:0.27459321 36:0.0066133636 37:0.032647476 38:0.20426214 39:0.16191203 40:0.52627766 41:0.14258972 42:0.16481424 43:0.021150277 44:0.0031937196 46:0.0088583152 47:0.59810376 48:0.33244923 49:0.0084888908 51:0.07606364 52:0.6369466 54:0.0027295752 60:0.1707857 61:0.099583885 64:0.32628048 65:0.14057618 67:0.019390553 68:0.5240099 69:0.21947763 70:0.0028951517 71:0.013168043 72:0.12810708 75:0.31356127 76:0.19375176 77:0.220234 80:0.23658071 
0 1.144889155050673 0 0.9087308704917176 0 0 0 1.180014273542681 1.006798119172134 8:0.0019852852 17:0.074662738 18:0.480481 19:0.071184289 20:0.14585637 21:0.24518833 23:0.00043158373 24:0.00090117328 26:0.010723688 27:0.38886065 29:0.04664372 30:0.12086551 31:0.070631945 34:0.20773427 35:0.4335881 36:0.21329666 37:0.044635774 39:0.040993113 40:0.45126658 41:0.43793768 42:0.045340618 43:0.0491087 44:0.33434694 45:0.78642351 48:0.47725562 49:0.53533746 50:0.003474182 51:0.038838306 52:0.056758964 55:0.044636437 56:0.028931833 59:0.35126468 60:0.13592498 61:0.15673778 62:0.1252096 63:0.0056271634 67:0.47355963 68:0.35105589 72:0.17685137 76:0.040516162 
0 0 1.152919379316118 0 0 0.6495376971486373 0 1.284347256345619 0 3:0.00055269685 8:0.1988692 9:0.32961121 10:0.61433444 14:0.23586956 18:0.37305914 19:0.19920904 20:0.16247947 29:0.037611624 30:0.14094872 31:0.0011353195 32:0.0092030197 33:0.40934566 34:0.4270173 35:0.23703094 36:0.0059758374 38:0.43064877 39:0.14686349 40:0.28470707 41:0.18278522 42:0.32894911 46:0.010046652 47:0.60255165 48:0.36796752 51:0.11694177 52:0.59212639 53:0.0060397055 60:0.14136887 61:0.15234132 64:0.31422255 65:0.27913755 68:0.35103529 69:0.62298475 70:0.015986005 72:0.10737849 75:0.38636921 76:0.35425838 77:0.15799521 79:0.10785603 80:0.18570954 81:0.0818548 
0 0 0 0.8705484033064754 0 0 0.8738168592655874 0 1.914257297178305 8:0.0018126517 13:0.087193895 14:0.051145057 17:0.030067957 18:0.58338837 19:0.14270723 20:0.205531 21:0.20988281 22:0.081728867 24:0.06743109 25:0.076046859 26:0.0069864621 27:0.21679762 30:0.18704738 31:0.063815491 34:0.021959089 35:0.64799724 36:0.0011580607 38:0.037809847 39:0.17966047 40:0.8421327 41:0.060188342 42:0.02568858 43:0.024009248 44:0.66074988 45:0.38970336 48:0.28425877 49:0.43781691 50:0.0023161213 52:0.027177715 53:0.27108097 55:0.042456498 56:0.085527781 57:0.070963882 58:0.046421062 59:0.27331108 60:0.13164454 61:0.2392577 62:0.099021915 63:0.068050123 67:0.47662908 68:0.21849899 72:0.29459316 76:0.0066463894 
1.302282498422692 0.9642147723957234 1.020632002950824 0 0 2.119726947411603 0 0 0 13:0.034129515 14:0.0091104044 17:0.013724363 18:0.44251623 19:0.12818517 20:0.079109303 21:0.22127481 23:0.033681011 24:0.033283137 25:0.016983574 26:0.023163383 27:0.19328008 29:0.073690512 30:0.073059978 35:0.56714533 36:0.17633312 37:0.080418652 38:0.015801859 39:0.058796959 40:0.86971646 41:0.023241495 42:0.017544598 43:0.012311867 44:0.43177742 45:0.68239922 48:0.46478558 49:0.235555 51:0.029238962 52:0.065745339 53:0.12782821 58:0.010194516 59:0.47259045 60:0.093940904 61:0.079573316 64:0.029632371 67:0.24720278 68:0.39966095 72:0.0045429185 76:0.010789593 
0 0 0 0 0 0 0 0.7203324665482104 0 4:0.005632457 8:0.016071686 9:0.35735765 10:0.31913843 14:0.44837731 18:0.39894925 19:0.28564416 20:0.0991861 23:0.047252565 24:0.0090649023 29:0.22342653 30:0.2690647 31:0.050216839 32:0.0028951517 33:0.14968094 34:0.54774899 35:0.10015678 36:0.032689441 37:0.043566287 38:0.18644524 39:0.0027021416 40:0.02641389 41:0.25252679 47:0.12892625 48:0.42662946 49:0.018372494 50:0.016533206 51:0.19739693 52:0.35826987 53:0.049453933 54:0.0047096049 60:0.18179115 61:0.084684926 64:0.34761081 65:0.27091162 67:0.0086079047 68:0.41953705 69:0.3737255 70:0.063715882 72:0.087040568 74:0.01422106 75:0.16724906 76:0.3559061 77:0.045574129 80:0.2167364 81:0.071495346 
0 0 0 0.6893212237019944 0 2.03875295528272 0 1.613284559893423 0 8:0.0021579186 12:0.037937229 13:0.085244182 14:0.10455431 17:0.12377922 18:0.40766893 19:0.10037487 20:0.22379775 21:0.086431968 22:0.0076661711 23:0.050617835 24:0.12483512 25:0.086076188 27:0.1496801 29:0.016666063 30:0.034680431 31:0.05271021 33:0.023402028 34:0.057617446 35:0.56134853 38:0.11188199 39:0.41883098 40:0.32789162 41:0.18420295 42:0.00025895024 43:0.042354441 44:0.33848552 45:0.23335033 48:0.52469201 49:0.15916145 50:0.001737091 52:0.1671367 53:0.31613683 55:0.04330636 56:0.085840413 57:0.037746778 58:0.31264936 59:0.13254001 60:0.094816838 61:0.19274203 62:0.25364617 63:0.058297109 66:0.012817996 67:0.32515282 68:0.29018435 70:0.008425947 72:0.35430231 76:0.12678807 
0 1.55793942507867 1.688384881309093 0 1.498901790756865 0 0 0 0 10:0.017395274 13:0.14085032 14:0.077671403 17:0.28064784 18:0.23266732 19:0.15484202 20:0.14512151 21:0.21461028 22:0.027775942 23:0.049183354 24:0.078839525 25:0.14990961 26:0.023640863 27:0.14592822 30:0.10184909 32:0.0061811469 34:0.016346714 35:0.51342701 39:0.37712223 40:0.44267306 41:0.061457523 43:0.013006648 44:0.45712252 45:0.26328203 48:0.61521178 49:0.13838147 50:0.0060652265 52:0.18520414 53:0.29848412 55:0.046076159 56:0.06408531 57:0.31671481 58:0.07594773 59:0.20088884 60:0.078376264 61:0.24878784 62:0.31186229 63:0.007266211 64:0.0081515221 66:0.0038602022 67:0.29780397 68:0.24067127 69:0.0063856893 71:0.10010291 72:0.22612803 76:0.13066326 
0 0 0 0 0 0 0 0 1.351463469765307 8:0.010792777 10:0.028023181 12:0.13587254 13:0.096943819 14:0.071131366 17:0.2457253 18:0.46727727 19:0.11814647 20:0.073148228 21:0.081864899 22:0.2469484 23:0.090803179 24:0.00090117328 26:0.0694399 27:0.12111513 30:0.13172594 34:0.15553286 35:0.51603863 37:0.013838973 39:0.32450832 40:0.54437707 41:0.050107453 43:0.019455572 44:0.3002448 45:0.011312764 46:0.03301283 47:0.03801499 48:0.32079307 49:0.016775762 50:0.00096505056 53:0.32823198 54:0.051205277 56:0.049368727 57:0.059901832 58:0.027366084 59:0.076660738 60:0.15221729 61:0.26982525 64:0.13414191 65:0.082484237 66:0.043393979 67:0.11488556 68:0.44996071 71:0.0052829797 72:0.29589118 76:0.25649795 79:0.018748029 
1.264549695908071 0 0 0 1.715017254821252 0 1.337497691677368 0.6891891616299658 0 8:0.00043158373 10:0.00096505056 11:0.00043158373 17:0.01458753 18:0.2141324 19:0.068056685 20:0.087272562 21:0.24683175 22:0.044431749 23:0.060649871 24:0.057719674 25:0.067605381 26:0.030507879 27:0.45069829 28:0.020816418 30:0.014559156 31:0.025263542 34:0.068954975 35:0.44042476 36:0.10887571 37:0.15724553 38:0.0022598017 39:0.086725765 40:0.65872118 41:0.07185338 42:0.024762072 44:0.26632858 45:0.49364379 48:0.4981424 49:0.50624231 50:0.032312626 51:0.014927557 52:0.084746277 53:0.49726787 56:0.050540053 57:0.061753488 58:0.054724613 59:0.1486222 60:0.18257447 61:0.20445396 62:0.03633043 64:0.045057424 65:0.0087299478 66:0.010366997 67:0.14449494 68:0.49741252 71:0.019390553 72:0.2739055 76:0.1602317 
2.718665911462751 3.149069546909087 3.082335919353735 3.894584637012195 2.394483925074192 1.543358107846971 1.632110259758943 2.882155386144627 2.025903387569241 8:0.00051790047 9:0.004004204 10:0.028992277 17:0.00077685071 18:0.21214041 19:0.13771931 20:0.0088043081 27:0.031246304 28:0.031126374 29:0.10906158 30:0.030916581 31:0.15810004 32:0.0036671921 33:0.073430326 34:0.10679826 35:0.15865692 36:0.22922327 37:0.066172036 40:0.10649965 41:0.38688847 42:0.01413725 44:0.095380839 45:0.44571727 46:0.042830927 47:0.223034 48:0.14580848 49:0.26236363 50:0.066304007 51:0.090628709 52:0.083622833 53:0.11291763 54:0.099386256 56:0.020986333 59:0.048165208 60:0.13639029 64:0.026076945 67:0.01213311 68:0.39804565 72:0.10485306 76:0.089416555 
0 0.7711555540010606 0.8040382464235701 0 0.464453161177389 0.949138422134258 0 0.6551308853014609 0 8:0.1516267 10:0.24703885 13:0.057345906 14:0.054919769 15:0.049767106 17:0.033957584 18:0.75696164 19:0.44683637 20:0.11537845 21:0.23316603 24:0.0060832522 30:0.013317464 31:0.071123339 33:0.0036753099 34:0.17066473 35:0.88591393 36:0.0040532123 38:0.0014706997 39:0.62745189 40:0.30478505 41:0.046431152 42:0.10017121 43:0.23629298 44:0.61078686 45:0.013336043 46:0.0030359983 47:0.020020328 48:0.85832839 49:0.18557822 50:0.0079096606 52:0.050079974 53:0.028828898 55:0.062597552 58:0.072891754 59:0.36100986 60:0.083951204 61:0.2996461 62:0.090121985 63:0.051378159 64:0.066797961 66:0.014854377 67:0.24022223 68:0.71286438 71:0.011003269 72:0.23625743 76:0.23914001 
0 0 1.423989065855299 0 0 0 0 0 0 8:0.0048337378 13:0.03196378 14:0.11532344 17:0.045925537 18:0.65789571 19:0.24244651 20:0.25410154 23:0.060162834 24:0.064789147 26:0.0013510708 27:0.10960886 28:0.03029177 29:0.1767757 32:0.003474182 33:0.0057049895 34:0.41907706 35:0.33059775 36:0.094455367 37:0.040187838 38:0.13639193 39:0.33845512 40:0.46929596 41:0.09226737 43:0.048620659 44:0.38624732 45:0.48941271 47:0.0081887255 48:0.80055937 49:0.15389269 50:0.039943542 52:0.3528884 53:0.26463368 54:0.015366563 55:0.021489923 59:0.11630048 60:0.29296767 61:0.11607164 63:0.029043116 64:0.077794375 65:0.014424197 67:0.057992257 68:0.84773366 71:0.017360184 72:0.047325775 76:0.21761739 
0 0 0 1.018714818019307 0 0.9460576437189897 0 0.9418487460799837 0 8:0.18044259 10:0.36461593 12:0.0024687193 14:0.061697585 15:0.021191425 17:0.0069916564 18:0.64693504 19:0.19297996 20:0.28563045 30:0.046186477 31:0.25288143 32:0.027269125 33:0.027023759 34:0.22742334 35:0.65772783 38:0.00034526698 39:0.11414478 40:0.58333827 41:0.017305979 42:0.17802964 43:0.68508692 44:0.032421147 47:0.027771605 48:0.97449486 49:0.0020716019 51:0.0034572097 52:0.082024669 55:0.2014285 57:0.031949522 59:0.061745472 60:0.39115981 61:0.10314707 62:0.087215156 63:0.048561896 64:0.31720167 66:0.035354035 67:0.3722563 68:0.56094195 71:0.11555251 72:0.33810818 75:0.11255221 76:0.32812471 
0 0 0 0 0 0.7844439468164256 0 0 0 8:0.0129783 17:0.028689796 18:0.75071018 19:0.34180245 20:0.15260887 25:0.00043158373 27:0.1236875 33:0.020828878 34:0.11207478 35:0.78118558 36:0.057339297 37:0.052470909 38:0.029109479 39:0.056155186 40:0.23804276 41:0.028252864 42:0.044169078 43:0.016574265 44:0.33426625 45:0.24705056 46:0.0035652055 47:0.0086079047 48:0.82564259 49:0.23315591 50:0.0050582434 51:0.0063971538 52:0.03125964 53:0.0091211916 54:0.00077204044 59:0.25058903 60:0.29217845 67:0.026456934 68:0.95253325 69:0.002596994 76:0.2316983 
1.202135908081762 0.7555611946878033 0.6025505172907644 1.248387122705682 0.9303014860031813 0.1835559963772371 1.581546790868192 0 0.5783885022131442 8:0.0057145635 13:0.16793922 14:0.11214042 15:0.038583199 17:0.33355711 18:0.4369442 19:0.18981116 20:0.28991301 21:0.11281616 24:0.043314324 25:0.071533806 27:0.012196369 34:0.17665162 35:0.45452811 37:0.049137095 38:0.099830098 39:0.45355717 40:0.4072298 41:0.016359256 42:0.0047497745 43:0.080094996 44:0.46311849 45:0.53009218 48:0.55525387 49:0.23703104 52:0.14555724 53:0.089404438 57:0.0052956572 58:0.12607941 59:0.10426426 60:0.1007029 61:0.062018446 62:0.35626714 64:0.044732044 66:0.0074075361 67:0.63017171 68:0.2434718 76:0.027019937 
0 0 0 0.5552572030701112 0.7865665819144129 1.279623436462819 1.264505687893306 0 1.009689985644416 8:0.034145005 9:0.35861605 10:0.57172491 11:0.0012084344 18:0.2006591 19:0.096746752 20:0.012721175 28:0.1085401 29:0.20139993 30:0.085009483 31:0.12626782 32:0.099945799 33:0.25081778 34:0.57631326 35:0.11760534 36:0.029145549 37:0.4274914 38:0.13555445 39:0.0096261556 41:0.84225137 42:0.0741607 44:0.011254327 45:0.04240789 46:0.11475536 47:0.45450092 48:0.34778781 49:0.0084170999 51:0.22854175 52:0.25620188 53:0.099494475 54:0.02355625 60:0.18987061 64:0.23422348 68:0.69159515 69:0.034223025 72:0.071727218 74:0.0022788275 76:0.32855461 77:0.14731708 79:0.0069724485 81:0.11343024 
0 0 0 0 0 1.015355588378419 0 0 0 8:0.044453584 10:0.11357045 13:0.13633206 14:0.18047555 17:0.26652924 18:0.498612 19:0.13703237 20:0.27480233 21:0.044729817 24:0.13416601 27:0.10792861 29:0.0028484526 30:0.25598266 31:0.04082408 33:0.0049570167 34:0.11594333 35:0.75860876 37:0.020711163 39:0.20381364 40:0.62851987 41:0.010110856 42:0.062354916 43:0.21241962 44:0.2485019 45:0.43849633 48:0.89399613 49:0.055537426 52:0.26756109 53:0.16080739 54:0.059361903 55:0.044407428 56:0.047171055 57:0.046352614 58:0.064708475 59:0.091704177 60:0.19886565 61:0.43202411 62:0.013009241 64:0.091105444 65:0.04606153 66:0.020075526 67:0.5794426 68:0.31355771 69:0.0094120881 70:0.10512182 72:0.26769541 76:0.23496646 
5.42726821692843 4.008676574114538 1.766741762160325 4.272709277663103 0 2.211823281631164 0.9614189048963384 2.49976392918897 1.399125430904191 10:0.17024513 17:0.0082050688 18:0.079934196 19:0.11209273 20:0.010012743 27:0.044314214 28:0.077828466 32:0.16380834 33:0.28914654 34:0.071259853 35:0.14681859 36:0.38143654 37:0.25716834 38:0.069556134 39:0.0096493474 40:0.13508235 41:0.57663635 42:0.035559471 44:0.1971243 45:0.55268601 46:0.13548163 47:0.27872278 48:0.25864189 49:0.44303487 50:0.017954591 51:0.02296285 52:0.039043045 53:0.01670937 54:0.096659754 59:0.12431385 60:0.028160915 68:0.43556076 69:0.005418052 76:0.067763945 
1.716765477746799 1.194427420743645 1.462941240323064 0 0 0 2.183245140889833 1.695762622533659 2.322794452234593 1:0.036568604 2:0.023125318 8:0.046410549 9:0.010798221 11:0.0015537014 12:0.0021972656 17:0.00025895024 18:0.079606424 19:0.11591449 20:0.0064737559 27:0.046022693 28:0.11753117 29:0.13276648 30:0.15640969 31:0.05435337 32:0.015693752 33:0.042211695 34:0.4643971 35:0.24633379 37:0.25886893 38:0.044040032 39:0.033775669 40:0.064705544 41:0.51789115 42:0.015312163 44:0.070508276 45:0.73743668 46:0.28432622 47:0.22923749 48:0.22250236 49:0.31880372 50:0.21425342 51:0.026343582 52:0.084183371 53:0.31623465 54:0.093397648 60:0.20782331 64:0.052500644 65:0.0083767278 66:0.008167772 68:0.62798864 72:0.075824897 76:0.16374635 77:0.11919149 
0 0.8923901221767411 0.9230375144432129 0.5776224175645573 0 0.9311961738068366 0.6345757492073949 0.8361235538433717 1.305892954799194 8:0.34602358 10:0.34195341 13:0.13616204 14:0.50621779 17:0.00060421722 18:0.54587717 19:0.24753607 20:0.22534179 23:0.0047607422 24:0.052721375 29:0.010268791 30:0.5279201 31:0.07008998 34:0.40978353 35:0.43422353 36:0.0028102696 37:0.16416349 38:0.068317286 39:0.015826829 40:0.25408646 41:0.036149248 42:0.041952378 43:0.0046322427 44:0.15094716 45:0.39967181 46:0.086104444 47:0.40702768 48:0.34667973 49:0.13997871 50:0.011312764 51:0.19814588 52:0.33800621 53:0.20648251 54:0.15388498 55:0.002920773 56:0.20849056 57:0.071400544 58:0.05093176 59:0.081071094 60:0.14145551 61:0.30434575 63:0.0041305968 64:0.0092326644 65:0.023762366 66:0.048159167 67:0.016048831 68:0.59465226 69:0.088542032 70:0.027704535 71:0.0043167004 76:0.24409946 77:0.2509977 78:0.0078903138 
0 0 0 1.689299556820756 0 0 0 0 0 8:0.0015537014 9:0.0090253641 17:0.0010358009 18:0.39144261 19:0.19877004 20:0.0065600727 28:0.12402658 29:0.028031023 30:0.034888417 31:0.042960701 32:0.1545399 33:0.10259933 34:0.15550081 35:0.10699814 36:0.26343722 37:0.27539863 40:0.019980004 41:0.86388044 43:0.013082043 44:0.0016400182 45:0.63221615 46:0.10529983 47:0.24092999 48:0.19239629 49:0.24141972 50:0.18398975 51:0.075069009 52:0.079300837 53:0.081250404 54:0.096633843 59:0.11687759 60:0.035463051 68:0.50291308 76:0.034473311 77:0.078507144 
0 1.451150199403659 0 0 0 0.7567863251683267 0 0 0 8:0.15093454 9:0.080589203 10:0.26577213 13:0.22573168 14:0.20483655 15:0.14934192 17:0.0037116201 18:0.48467794 20:0.27148565 21:0.052845167 24:0.021311148 29:0.029675391 30:0.039577948 33:0.15353619 34:0.4823656 35:0.094116142 37:0.033310884 38:0.39644907 39:0.30147059 40:0.12427683 41:0.0065623438 42:0.0029347694 43:0.34008095 44:0.2622071 45:0.0341783 48:0.65452997 52:0.18327733 53:0.011008347 60:0.010710519 61:0.099203631 64:0.073211985 65:0.11142824 66:0.11760996 67:0.35078576 68:0.098004106 69:0.34352521 70:0.13606674 71:0.23072342 72:0.089235081 75:0.16370402 76:0.081910837 
0 0 0 0 1.435305237371187 0.850876496682918 0 0 0 8:0.10450793 10:0.049255711 12:0.016493728 13:0.18698411 14:0.29046746 15:0.0029963227 17:0.15344792 18:0.66561061 19:0.18143903 20:0.28103758 21:0.10174426 23:0.026062798 24:0.058630932 25:0.13093871 30:0.21132372 31:0.034935683 34:0.17404711 35:0.73399311 38:0.2449873 39:0.47803091 40:0.13137216 41:0.01676968 42:0.035518732 43:0.14639183 44:0.14631884 45:0.040765746 48:0.84839541 49:0.0053582175 52:0.55633912 53:0.12231783 57:0.25587477 58:0.094546478 59:0.072852271 60:0.17055897 61:0.28244328 64:0.19692714 66:0.039169601 67:0.02951987 68:0.33884762 69:0.33781879 70:0.1966136 71:0.0044325141 72:0.23333122 75:0.27596601 76:0.20145449 80:0.027541535 
0 0 0 0 0 0 0 0.7397461175183908 0 8:0.0079411406 9:0.086835152 10:0.12309264 11:0.00069053397 13:0.013510708 14:0.051964635 17:0.31151151 18:0.52830746 19:0.24609381 20:0.18238759 21:0.22655645 22:0.0046897883 24:0.02030902 26:0.0027932686 27:0.13967905 28:0.0004648299 29:0.00051790047 30:0.0024655809 31:0.00017263349 32:0.0016820285 33:0.0014900581 34:0.48317191 35:0.33294445 36:0.28411664 37:0.025484776 38:0.085122383 39:0.37207598 40:0.3486135 41:0.001630898 42:0.10455741 43:0.00055269685 44:0.26924674 45:0.37677922 47:0.003141977 48:0.96592764 49:0.031889374 50:0.0023161213 51:0.027195392 52:0.20333778 53:0.1361075 54:0.027270901 55:0.0010676792 59:0.0044392326 60:0.57066547 61:0.11546446 64:0.032678925 65:0.00062839539 66:0.046943871 67:0.26646281 68:0.67225714 69:0.088955785 70:0.00048828125 71:0.00051790047 72:0.040595655 75:0.063047042 76:0.39895717 
0 0.9696428260120029 0 0 0 0 0 0 0 8:0.27262299 10:0.12288747 11:0.0037683958 13:0.17807501 14:0.10253094 15:0.13748327 17:0.10659675 18:0.70082821 19:0.10965101 20:0.51056205 25:0.026229377 30:0.068318685 31:0.010509396 32:0.0023225461 34:0.33899342 35:0.69770768 39:0.86691159 40:0.10694593 41:0.0073343842 42:0.08280279 43:0.36149531 44:0.19533321 45:0.013373527 47:0.034012783 48:0.94105098 49:0.0098743399 52:0.31953093 53:0.055213848 56:0.022455658 60:0.53376799 61:0.1529578 64:0.14103484 65:0.11291832 66:0.0054042831 67:0.061999228 68:0.92887552 69:0.015541478 72:0.48497085 75:0.26911129 76:0.21133359 80:0.015363653 
0 0 0 0 0 0 0 0 0.8046481706999927 8:0.086766562 9:0.020292331 10:0.37468164 11:0.012505161 13:0.028138921 14:0.02607923 15:0.02205309 17:0.26503983 18:0.44300325 20:0.50312044 29:0.00017263349 32:0.00024414063 34:0.37093749 35:0.64189011 37:0.039374536 38:0.091985859 39:0.51149776 40:0.21771442 41:0.022003153 42:0.35736591 43:0.026168674 44:0.1762829 45:0.35402493 46:0.013569117 47:0.32730108 48:0.66906623 49:0.0082079762 50:0.0053669773 51:0.046080904 52:0.20990239 53:0.10665298 54:0.033406365 60:0.43920318 61:0.13104217 64:0.081345128 65:0.008651074 66:0.0048252528 67:0.010909978 68:0.9852206 69:0.010735657 70:0.0027021416 71:0.00061276426 72:0.084852107 75:0.12221944 76:0.46696963 81:0.0035808448 
0 0 0 0 0 0 0 0 1.656803710197569 8:0.0050063713 9:0.022909739 10:0.10350885 17:0.0030210861 18:0.55666381 19:0.20588528 20:0.013384366 29:0.14466087 30:0.055460014 31:0.061352319 32:0.0093612889 33:0.022041342 34:0.20650799 35:0.63569036 36:0.055809827 37:0.1337923 38:0.030891566 40:0.29311478 41:0.74083946 42:0.054477774 44:0.058686117 45:0.96889476 46:0.092668307 47:0.35287687 48:0.30402423 49:0.35571108 50:0.039874765 51:0.044366555 52:0.09687526 53:0.081952936 54:0.019283439 59:0.29872066 60:0.1459162 61:0.033975262 65:0.0048598704 67:0.048308947 68:0.68746694 69:0.00077685071 76:0.10599754 
0 0.9450040135379436 0.6142665619429454 1.13955710155071 0 0 0 0.833114230822651 0 8:0.0067327062 9:0.11185155 10:0.40483944 18:0.10170532 19:0.12250061 20:0.0075095569 28:0.11420929 29:0.088204611 30:0.011371883 31:0.10060934 32:0.033945277 33:0.25325025 34:0.279318 35:0.47687359 36:0.079277856 37:0.86540051 38:0.034846693 40:0.0028471445 41:0.93516733 42:0.038731041 45:0.25866346 46:0.074915377 47:0.52267343 48:0.39657451 49:0.055716196 50:0.015619189 51:0.2107401 52:0.033533082 53:0.064275462 54:0.13919889 60:0.294073 68:0.91786913 76:0.27373787 77:0.1156783 
0 0 0 0 0 0.7541363837673237 0 0 0 8:0.010271693 9:0.1736975 10:0.07817885 17:0.00025895024 18:0.51676857 19:0.19074838 20:0.020550723 29:0.24421418 30:0.038353014 31:0.16404002 32:0.10954896 33:0.043472554 34:0.33224375 35:0.24957703 36:0.14127839 37:0.047207844 38:0.018720968 40:0.023533268 41:0.6771786 42:0.0067878119 45:0.070930091 46:0.039173453 47:0.29698651 48:0.26095344 49:0.024848752 50:0.07387443 51:0.10750191 52:0.3376214 53:0.011942944 56:0.02540192 60:0.24413719 64:0.32211856 65:8.6316746e-05 68:0.41291239 69:0.07271057 71:0.0012084344 72:0.14298361 75:0.084878702 76:0.21507248 77:0.065946625 80:0.059128208 81:0.10402304 
0 0.8008292919533089 1.495720977332685 0 0.9000784765050451 1.093681628182231 0.7350676354539732 1.335664105561411 1.14053376058319 3:0.015580113 8:0.31841253 10:0.40216345 13:0.15821155 14:0.28020556 15:0.22112576 18:0.3950903 19:0.019316639 20:0.26642761 21:0.021179287 29:0.031877068 30:0.16618943 33:0.018381964 34:0.77603363 35:0.001737091 37:0.21179968 38:0.19293083 39:0.39046355 40:0.028435243 41:0.012931677 42:0.11573771 43:0.33969806 44:0.17054543 45:0.0040301694 47:0.0031939461 48:0.75374783 49:0.0013266294 52:0.25558965 53:0.0081850853 60:0.049642137 61:0.023177963 64:0.11539095 65:0.18879932 66:0.085378097 67:0.27473735 68:0.15596771 69:0.33552177 70:0.25648777 71:0.30216325 75:0.24648565 76:0.099331869 
0 0 0 0 0.7218026631125047 1.118699411591497 0 0 0 2:0.0027796137 4:0.051726206 8:0.19039145 9:0.31170883 10:0.51842576 11:0.00086316746 14:0.47605074 15:0.1883879 17:0.0084308089 18:0.35707236 19:0.24792183 20:0.27027561 24:0.025481136 29:0.2333779 30:0.32710108 31:0.012046367 32:0.058457966 33:0.41988498 34:0.29095904 35:0.32925135 36:0.041572514 37:0.14349647 38:0.27847007 39:0.0094574954 40:0.032136549 41:0.056977426 42:0.12727205 43:0.17414436 44:0.029155421 45:0.0096505056 47:0.011158589 48:0.96786629 49:0.0014235722 52:0.7061512 60:0.21958437 64:0.11422706 65:0.23072231 67:0.089787657 68:0.29230181 69:0.52415228 70:0.029891315 71:0.097286138 72:0.235287 75:0.14099504 76:0.48519268 80:0.10359392 
0 0.7475582927866805 0 0 0 0 0 0.7244392369007832 0 8:0.0038842536 9:0.049852579 10:0.01452688 13:0.0034201479 15:0.0037076032 17:0.0022442354 18:0.50424553 19:0.23848187 20:0.050538863 27:0.0063364958 28:0.052214748 29:0.1730132 30:0.14146352 31:0.12868051 34:0.10446507 35:0.62468073 36:0.025148954 37:0.11568884 38:0.016800751 40:0.16380628 41:0.54870597 42:0.017639899 44:0.033685009 45:0.43759985 46:0.012706846 47:0.25562108 48:0.30249398 49:0.10862107 50:0.039990014 51:0.21948697 52:0.089961862 53:0.10061091 54:0.15863527 58:0.016458229 59:0.20513111 60:0.15332176 61:0.0038311413 62:0.0031289076 64:0.018476733 67:0.014491253 68:0.48509933 72:0.0097745981 76:0.11785939 77:0.070098075 
0 0 1.36376353176644 0 1.476041438294607 0 0 0 1.248335338134055 8:0.021767359 9:0.21864455 10:0.12174852 11:0.014096082 13:0.0055060342 14:0.3574019 15:0.004871355 17:0.0020716019 18:0.38620594 19:0.15861153 20:0.15613159 24:0.079762545 27:0.013216331 28:0.019243989 30:0.16571264 31:0.12269951 32:0.084283167 33:0.093794747 34:0.35255699 35:0.39634606 36:0.015893419 37:0.059360842 38:0.44968372 39:0.098066312 40:0.10888124 41:0.071154842 42:0.039110155 44:0.038165129 45:0.077593954 46:0.012553549 47:0.21635495 48:0.4938766 49:0.01234816 50:0.0066019922 51:0.02394319 52:0.21940622 53:0.47155686 60:0.075239907 64:0.11134249 65:0.012530504 67:0.0042162881 68:0.45526291 69:0.26197004 71:0.0034623668 72:0.17916212 76:0.36663025 81:0.035336456 
0 0 0 0 0 0 0 2.361479779831379 0 8:0.0018126517 9:0.029057441 10:0.058047033 13:0.0054221759 14:0.010247001 17:0.0082864076 18:0.39901154 19:0.3378156 20:0.04984432 23:0.00726344 27:0.015247554 28:0.0049892274 30:0.31155961 31:0.16967904 32:0.008988968 34:0.21114372 35:0.51345514 36:0.11134954 37:0.045065848 39:0.0056165611 40:0.28258475 41:0.43702629 43:0.024590579 44:0.23370278 45:0.39494198 47:0.11930418 48:0.47917052 49:0.35430889 50:0.048221435 51:0.061350784 52:0.20928979 53:0.28366838 55:0.048939235 56:0.051437394 57:0.0359087 58:0.010315483 59:0.213627 60:0.15393583 61:0.10074708 63:0.013070647 64:0.013691479 65:0.0012022531 67:0.10276254 68:0.5330495 70:0.0055946304 72:0.26455647 76:0.12647512 
0 0 0 0 0 0.6314198861763421 0 0 0 8:0.024487895 9:0.061245624 13:0.083764098 14:0.18488639 17:0.086841524 18:0.91293666 19:0.21395308 20:0.33754962 21:0.10742663 23:0.028497601 24:0.11081098 26:0.0036631265 27:0.12220523 29:0.074573486 30:0.16401009 31:0.04073053 34:0.10158673 35:0.88597232 36:0.0067553539 37:0.1492246 38:0.03588704 39:0.10245732 40:0.70441184 41:0.15077091 44:0.43794105 45:0.21318236 48:0.94445473 49:0.064427475 50:0.0090340794 52:0.145039 53:0.40256884 56:0.015299013 57:0.073472919 58:0.17898584 59:0.21871296 60:0.12073474 61:0.24656529 62:0.12441469 64:0.21984828 66:0.011384979 67:0.16768509 68:0.57635573 69:0.2121247 72:0.1957945 76:0.3426166 
0 0 0 0.7630066261573846 0 0 0 0 0.7006304544448133 8:0.09578985 9:0.234524 10:0.40349507 11:0.0051863277 14:0.16681537 17:0.002849801 18:0.45237369 19:0.21180285 20:0.056398469 28:0.13876061 29:0.065004157 30:0.049241793 31:0.15839634 32:0.0013510708 33:0.30267303 34:0.39742419 35:0.29547085 36:0.026665329 37:0.40095591 38:0.3750645 39:0.0086678518 40:0.13760058 41:0.28511103 42:0.36954619 46:0.018106635 47:0.62022892 48:0.34993429 49:0.0063897716 51:0.18918419 52:0.37369176 53:0.05821743 54:0.042459768 60:0.20831139 64:0.26784281 68:0.76541281 69:0.10877113 75:0.099505665 76:0.22491207 77:0.21036867 80:0.035359326 81:0.056884569 
0 0 0 0 0 0 0 0 0.7336744289691223 8:0.073894813 10:0.014346508 13:0.19039184 14:0.20642192 17:0.018159429 18:0.87581174 19:0.29301696 20:0.14685162 21:0.19734031 23:0.15821514 24:0.086018121 25:0.060432696 27:0.10758026 29:0.0071829848 30:0.30186295 31:0.13911777 32:0.022782552 34:0.2380648 35:0.77845862 36:0.013348097 38:0.0043953789 39:0.37776035 40:0.27070345 41:0.19795426 44:0.1413097 45:0.12960274 47:0.033323632 48:0.75377872 49:0.039374844 50:0.0048252528 52:0.16409804 53:0.5634196 55:0.059178423 56:0.13273936 57:0.011364018 59:0.10764364 60:0.43731291 61:0.11556206 64:0.10583587 66:0.0023161213 67:0.036800151 68:0.82343118 69:0.0031074028 71:0.0091642209 72:0.62237252 76:0.36213661 81:0.005632457 
0 0 0.9619525767986404 0.850250403552385 1.098006986500218 2.543635060150589 0 2.669416393592095 0 8:0.0020716019 9:0.015332342 10:0.17722388 17:0.0024168689 18:0.37580016 19:0.25885147 20:0.0085453578 30:0.13261357 31:0.05075897 32:0.061964877 33:0.04238161 34:0.25657353 35:0.48303019 36:0.27425214 37:0.30322772 38:0.1826118 39:0.10079632 40:0.1346483 41:0.61200254 42:0.097424259 43:0.035389045 44:0.09638851 45:0.5517357 46:0.10511892 47:0.35146664 48:0.5448364 49:0.070623435 50:0.065785169 51:0.079520904 52:0.064575119 53:0.28172355 54:0.005069226 57:0.043252614 58:0.10985378 59:0.088923183 60:0.15818239 61:0.05029508 64:0.073317078 67:0.0043158373 68:0.51148769 69:0.33245603 72:0.044525425 76:0.31709955 77:0.024331526 
0.8303194681327187 1.653674831215457 1.127392414931977 1.298488780857755 1.828781643355355 1.435546639965415 1.334500201019558 1.327841037177591 1.528373076728023 8:0.15738158 10:0.29243461 11:0.12341567 12:0.082578235 13:0.11637716 15:0.052932086 16:0.1000295 17:0.096131914 18:0.35053513 20:0.10656395 33:0.12884844 34:0.34659965 35:0.3239173 38:0.27245088 39:0.728251 40:0.043564174 41:0.028878115 42:0.16472641 43:0.67095943 44:0.0432346 47:0.054884096 48:0.52051499 52:0.005679878 54:0.0022191967 60:0.02612974 61:0.039253151 64:0.047931837 65:0.16581511 67:0.093555076 68:0.19787216 69:0.51137767 70:0.071776175 71:0.12171738 72:0.17875971 73:0.014114306 75:0.3665045 76:0.1014145 80:0.0097059333 
0 1.724970503741563 1.093594776307651 0.9152305640045431 1.00894552183341 1.853738515358396 0.9099765608504061 1.31727443053765 0.9817053567628073 6:0.0016400182 7:0.0042162881 8:0.0080249668 10:0.12544957 11:0.012287432 12:0.0021440635 13:0.0061582023 14:0.061165092 15:0.02833565 17:0.21622579 18:0.37967891 19:0.15708675 20:0.17517833 21:0.052688296 34:0.30654819 35:0.1505385 38:0.0056231898 39:0.45512582 40:0.47335752 41:0.014095025 42:0.14402683 43:0.22374803 44:0.79604759 45:0.17287769 48:0.74657734 49:0.090197435 52:0.047991678 60:0.010450025 61:0.31495905 64:0.07629028 65:0.13365493 66:0.060081758 67:0.56692152 68:0.24401888 69:0.10074905 70:0.062741275 71:0.18439181 72:0.066995345 75:0.040727054 76:0.02660252 
0 0 0 0.6979527614031033 0 0 0 0 0.8227727228902416 8:0.071886505 9:0.2168507 10:0.22438933 18:0.62432971 19:0.24424332 20:0.080068068 27:0.098375968 28:0.095833752 29:0.031604897 30:0.091257453 31:0.13454134 32:0.0078377316 33:0.028917012 34:0.56041217 35:0.3923104 36:0.019783113 37:0.41075007 38:0.027703546 39:0.018823005 40:0.35761624 41:0.54432345 44:0.027536449 45:0.45940557 46:0.089576606 47:0.38359849 48:0.35723152 49:0.23617984 50:0.051604675 51:0.25225959 52:0.12854872 53:0.16080267 54:0.21651333 59:0.14725913 60:0.18458177 64:0.005890446 67:0.0056765977 68:0.86672959 71:0.005418052 76:0.11906294 77:0.30759976 
0 0 0 0 0 0 0 0.610763590661081 0 8:0.047120926 10:0.18393452 11:0.0025046734 13:0.25083761 14:0.087926751 15:0.12124794 17:0.12193537 18:0.50241171 19:0.14396136 20:0.21954429 21:0.082982127 22:0.011137536 24:0.026260726 25:0.057321728 29:0.08547507 30:0.065535729 34:0.36409722 35:0.49191476 38:0.27559561 39:0.27281704 40:0.30150211 42:0.013339219 43:0.13947699 44:0.11661261 45:0.013698547 48:0.49188064 49:0.075211961 50:0.017073487 52:0.3621258 54:0.011637725 60:0.32969483 61:0.02084299 64:0.23399842 65:0.20351851 66:0.01695855 67:0.25924887 68:0.27143017 69:0.39232731 70:0.054907036 71:0.14796508 72:0.16586687 73:0.021533217 75:0.28534829 76:0.043503045 
0 0 0 0 0 0 0 0 0.9541156079607752 8:0.076722315 10:0.11090505 13:0.11519238 14:0.16997374 17:0.0015537014 18:0.77053288 19:0.36763131 20:0.24672918 23:0.083972595 24:0.075287386 26:0.0033971973 29:0.090675851 30:0.056177871 34:0.24783311 35:0.73203697 36:0.0061648529 37:0.34762456 38:0.13121171 39:0.091145819 40:0.63935481 41:0.043476182 42:0.0088805628 44:0.085754955 45:0.22987939 46:0.037726611 47:0.27034052 48:0.39044867 49:0.27139762 50:0.035969421 51:0.00051790047 52:0.45509522 53:0.28199638 54:0.094804125 56:0.0055411048 59:0.2486786 60:0.20319949 61:0.12463415 64:0.10031131 67:0.029573911 68:0.95173947 72:0.19192807 76:0.31583185 77:0.1086364 81:0.015249753 
2.314690634699749 0 0 0.8422617276965603 0 0 0 0 0 17:0.015019114 18:0.43957645 19:0.27669895 20:0.029865749 27:0.10082242 28:0.0035901956 30:0.19530785 31:0.055225046 34:0.059231467 35:0.48683188 36:0.18518322 37:0.063230059 38:0.022202658 39:0.022956522 40:0.57405979 41:0.39042727 42:0.028500557 43:0.0056105885 44:0.30620976 45:0.80563744 46:0.025904229 47:0.11681155 48:0.40374432 49:0.40859439 50:0.10396728 51:0.11577863 52:0.039011445 53:0.14150081 54:0.092170967 55:0.044117991 57:0.032990278 58:0.0081691401 59:0.1742375 60:0.25086182 61:0.10352634 67:0.24311973 68:0.45468924 69:0.0084722425 72:0.17727764 76:0.063671298 
0 0 0 0 0 0.5650184038176911 0 0 1.037207961709309 1:0.0044434264 8:0.11451894 9:0.19854334 10:0.16995335 11:0.0061503331 13:0.18901552 14:0.32724696 15:0.052614712 16:0.039825708 17:0.0021579186 18:0.58306624 19:0.061455896 20:0.34393635 25:0.068151989 28:0.024834352 29:0.076804928 30:0.30461558 31:0.33935737 32:0.0077536272 33:0.057031434 34:0.24541341 35:0.44456252 36:0.073384705 39:0.024027776 40:0.1060277 41:0.046876067 42:0.0031074028 43:0.10125437 44:0.3977361 45:0.053324929 47:0.20774274 48:0.68710048 49:0.0022508653 52:0.18186427 53:0.23735789 54:0.011784686 55:0.20916458 59:0.094359067 60:0.41716888 61:0.015940812 64:0.23419809 65:0.0012207031 66:0.098439751 67:0.12227647 68:0.54874845 69:0.10732943 70:0.10123569 71:0.20396284 72:0.232666 75:0.1124389 76:0.35718468 
0 0 0 0.5617954061571176 0 0 0 0 0 4:0.034438975 8:0.025940009 9:0.51450269 10:0.4342922 11:0.0012947512 14:0.57836887 15:0.050548386 17:0.00043158373 18:0.43683202 19:0.26431844 20:0.217436 24:0.027509053 28:0.20945162 29:0.19548323 30:0.078697966 31:0.2517327 32:0.13306489 33:0.19061144 34:0.38772649 35:0.15567917 36:0.10086533 37:0.04957211 38:0.015614846 39:0.01794994 40:0.04898091 41:0.10828857 42:0.085633242 43:0.091488332 44:0.34774709 45:0.020667906 47:0.12420662 48:0.85897096 49:0.0057145635 52:0.44569071 53:0.033707877 54:0.003913872 55:0.068121482 59:0.0013510708 60:0.54540987 62:0.0060520289 64:0.45678681 66:0.013377703 67:0.20861214 68:0.60623634 69:0.20308594 70:0.015247799 71:0.20440198 72:0.19284165 75:0.13010305 76:0.41465559 80:0.01761052 
0.6012720492825345 0.6464101117532377 0 0 0.722507411915246 0 0.7280998549118217 0.7294746656262662 0 8:0.26260274 9:0.21966849 10:0.50556876 11:0.0032148174 13:0.049612299 14:0.059120631 15:0.030067987 16:0.0049532577 18:0.46999238 19:0.30455185 20:0.24950611 23:0.0408734 29:0.054048966 30:0.36123949 31:0.17285781 33:0.0036621094 34:0.72034546 35:0.29409462 36:0.0054383429 37:0.010966304 38:0.012592782 39:0.20767326 40:0.85474501 41:0.083141782 42:0.050309635 43:0.16571494 44:0.3845725 45:0.0019301011 47:0.23726763 48:0.72902437 49:0.029247624 50:0.063041929 51:0.031806052 52:0.51812301 53:0.24582672 55:0.030955958 56:0.048168534 57:0.0032958984 59:0.00057903033 60:0.51629971 61:0.11075642 63:0.049045195 64:0.21238547 66:0.073504506 67:0.023466093 68:0.89525264 69:0.079784739 71:0.019511594 72:0.57583434 75:0.22947033 76:0.55214801 77:0.00057903033 80:0.099754122 81:0.035330869 
0 0 0 0.6843376547136338 0 0 0 0 0 8:0.00025895024 17:0.024451247 18:0.55790286 19:0.15370087 20:0.21828141 26:0.0030358472 27:0.24207997 29:0.012700593 30:0.029209571 32:0.0089644834 33:0.0052998763 34:0.23488952 35:0.16920236 36:0.50407212 37:0.057006256 38:0.090603507 39:0.061491372 40:0.54581588 41:0.25606131 43:0.011162594 44:0.27811587 45:0.80873647 47:0.031930858 48:0.88843649 49:0.045163004 50:0.10093488 51:0.10153353 52:0.04689391 53:0.21962518 54:0.087095209 59:0.31427383 60:0.21046915 61:0.05029508 64:0.04701224 67:0.020952934 68:0.94773649 72:0.074276243 76:0.35135968 
0 0 1.640153049986516 0 0 0 0 1.773511950838714 1.371902932952545 17:0.021320236 18:0.31441848 19:0.18875466 20:0.13404632 24:0.023395819 25:0.013578093 26:0.00025895024 27:0.18423006 32:0.014979375 34:0.01328521 35:0.45343022 36:0.15100131 37:0.11001159 38:0.098551974 39:0.15384786 40:0.52405308 41:0.040343253 44:0.37768415 45:0.70813177 46:0.0084263891 47:0.022374918 48:0.51730501 49:0.41263537 50:0.0048252528 51:0.048379054 52:0.22715344 53:0.15037446 54:0.096834469 58:0.248269 59:0.15415717 60:0.10545728 61:0.091611566 62:0.13724666 63:0.0055972932 67:0.059292128 68:0.79604931 69:0.0093146128 76:0.14004473 
0 0 0.8933555562694041 0 0 0 0 0 0 8:0.32280144 9:0.15597007 10:0.36815978 12:0.042327787 13:0.14560293 14:0.23123302 15:0.19968021 18:0.55624431 19:0.12990769 20:0.34505805 24:0.029177103 31:0.0019871607 32:0.0061047362 33:0.036368219 34:0.88987764 37:0.034582576 38:0.36859552 39:0.49691194 40:0.058068155 41:0.0028951517 42:0.094613232 43:0.16195094 47:0.1290267 48:0.78170559 52:0.6960081 54:0.0018593196 60:0.062555212 61:0.2140199 64:0.15681653 65:0.24332708 66:0.037656663 67:0.069829604 68:0.38363797 69:0.52546666 70:0.097446773 71:0.094042935 72:0.2569745 73:0.00038602022 75:0.36829568 76:0.24998192 77:0.00223925 80:0.11065874 
0 0 1.309884131850909 0 1.124015939713076 0 0 0.912551320910887 0 8:0.033959915 10:0.1118613 11:0.016216337 13:0.16296726 14:0.21170129 15:0.10838982 16:0.026002123 17:0.36539831 18:0.44483724 20:0.53071469 25:0.045264586 29:0.0031937196 30:0.027083393 31:0.0095982514 34:0.48868533 35:0.18195089 36:0.21737782 38:0.028485875 39:0.77892867 40:0.057646345 41:0.030984488 42:0.0050063713 43:0.17824128 44:0.051104127 45:0.088550372 46:0.00019301011 47:0.17546501 48:0.69199711 49:8.6316746e-05 50:0.00019301011 52:0.55134519 53:0.20496375 60:0.28868585 61:0.10771131 64:0.3314653 65:0.11685375 67:0.067214204 68:0.76574828 69:0.11332509 70:0.01126317 72:0.35152706 75:0.062917307 76:0.46509162 80:0.096245138 
0 0 0 0 0 0 0 1.11185831977575 0 8:0.25067117 9:0.13739159 10:0.29589976 11:0.0111696 12:0.023826233 13:0.23605226 14:0.31692941 18:0.46726935 19:0.45600351 20:0.1677072 24:0.18934717 25:0.033837155 27:0.13011758 29:0.03045788 30:0.21059716 31:0.00060421722 34:0.61472504 35:0.38433791 36:0.0034201479 37:0.088156435 38:0.049046568 39:0.50336128 40:0.22765823 44:0.2809264 45:0.021231112 47:0.0037186392 48:0.70244584 49:0.33718988 50:0.010461801 51:0.009540106 52:0.25027085 53:0.502402 56:0.070762845 57:0.060494368 59:0.059598383 60:0.40823849 61:0.2679503 64:0.21814213 65:0.048046881 66:0.070637938 67:0.29843603 68:0.56235106 69:0.01152676 71:0.20872045 72:0.24588719 76:0.44200092 77:0.005679878 
0 0 0 0.9921867463313594 0 1.118017097023491 0 0 0 8:0.0072506066 9:0.31672494 10:0.2429648 13:0.046107426 14:0.076841627 17:0.00043158373 18:0.73007569 19:0.26102663 20:0.19023398 22:0.0055786266 24:0.034512129 28:0.049047563 29:0.0004648299 30:0.015650966 31:0.25962387 32:0.26574484 33:0.19302304 34:0.11590529 35:0.36374068 36:0.20664709 37:0.021965685 39:0.010502304 40:0.3470217 41:0.53032386 42:0.016073698 44:0.36782437 45:0.14664797 47:0.013773271 48:0.88384598 49:0.0037116201 51:0.038745548 52:0.15474576 53:0.26190456 54:0.0049102015 55:0.11036562 60:0.31746553 61:0.038409062 62:0.03069407 63:0.06378217 64:0.16112067 66:0.0011580607 67:0.12818136 68:0.84828541 69:0.0041233275 70:0.0011580607 72:0.45991597 75:0.068109662 76:0.35616886 
0 0 0.7627122411139794 0 0 1.048971692898887 0 1.353253122757922 0 8:0.012264851 10:0.036847851 12:0.016164986 13:0.054144755 14:0.12402022 17:0.078788378 18:0.57756165 19:0.47061183 20:0.1225551 23:0.15410375 24:0.05645775 25:0.0082295673 26:0.0085366345 27:0.090115467 29:0.00054591503 32:0.019234764 34:0.12035497 35:0.76698918 36:0.001675968 37:0.005765556 38:0.13671468 39:0.67725724 40:0.20025324 41:0.043324231 42:0.0042516892 44:0.2373606 45:0.06947435 47:0.0066637422 48:0.47040905 49:0.30303322 50:0.018906441 51:0.020874876 52:0.47055422 53:0.21429376 59:0.21274006 60:0.17697038 61:0.068959494 64:0.29102465 65:0.080101373 67:0.083346549 68:0.51305656 69:0.31279029 72:0.080295746 73:0.01985454 75:0.12552468 76:0.13151803 77:0.079475497 80:0.011575459 81:0.056205393 
0.8748590810653483 0.5040541635564159 0 0 0.7228502110971267 0 0.7843365816368228 0 0 8:0.056105981 12:0.015373349 13:0.24717448 14:0.16804169 17:0.16042552 18:0.67516985 19:0.11836155 20:0.38264954 21:0.12440172 24:0.13420885 25:0.20002053 26:0.0084608025 27:0.20471047 30:0.026848131 33:0.0010358009 34:0.072199629 35:0.93821625 36:0.0019301011 38:0.0024429317 39:0.91730715 40:0.069979594 41:0.0034048647 42:0.0013203923 43:0.0018310547 44:0.11203673 45:0.044188211 48:0.89696398 49:0.028619435 50:0.0023161213 51:0.0095093479 52:0.78772607 53:0.091739161 57:0.018594889 59:0.0013510708 60:0.57520991 61:0.10492059 64:0.10578506 65:0.14411573 66:0.11775303 67:0.096884409 68:0.67947125 69:0.016253368 71:0.055098217 72:0.33177302 75:0.046915074 76:0.35961933 80:0.048093612 
0 0 0 0 0 0 0.9794463156009952 0 0 8:0.010271693 9:0.098701363 10:0.33087231 11:0.02176749 17:0.0059558555 18:0.58976717 19:0.55215308 20:0.0063030832 29:0.00077204044 30:0.01337811 31:0.0036345398 34:0.60218997 35:0.40773608 36:0.020551725 37:0.050808386 38:0.090889629 39:0.12206878 40:0.72807276 41:0.11192154 43:0.00012207031 44:0.076677341 45:0.37337945 46:0.082362087 47:0.31270868 48:0.36676817 49:0.35863195 50:0.24479755 51:0.13540249 52:0.070049965 53:0.2500375 54:0.25760287 59:0.10400318 60:0.21202492 61:0.052246379 64:0.12390331 67:0.010448141 68:0.89928698 72:0.046016553 76:0.39253359 
0 0 0 0 0.8615572198826494 0 0 0 0 8:0.029535627 9:0.11826548 14:0.22763131 15:0.010387101 17:0.020509001 18:0.74869953 19:0.35957121 20:0.22055525 23:0.056596936 24:0.036408583 27:0.018691114 29:0.028638954 30:0.063767521 31:0.11520222 32:0.043736516 33:0.11620743 34:0.38921061 35:0.58857481 36:0.055743783 37:0.14693204 38:0.33507993 39:0.20283988 40:0.39282987 41:0.12807678 43:0.036665116 44:0.033107394 45:0.047036534 47:0.0086424574 48:0.91189341 49:0.020653853 50:0.0046322427 51:0.0449023 52:0.52725675 53:0.30008087 59:0.064778555 60:0.19941229 64:0.18154438 65:0.16695865 67:0.0050553804 68:0.4528864 69:0.39835257 70:0.0028951517 71:0.042145648 72:0.14044221 75:0.11271289 76:0.306616 80:0.067427378 
0 0 0 0 0 0.6076570594007873 0 0 0 8:0.0034631506 10:0.075869228 17:0.0026758191 18:0.24602374 19:0.11318471 20:0.023912702 29:0.018673167 31:0.22010205 32:0.064124761 33:0.07248653 34:0.10078875 35:0.4002748 36:0.43127346 37:0.43176537 40:0.012901394 41:0.79103391 42:0.070350115 43:0.010837031 44:0.19511803 45:0.83015269 46:0.069396794 47:0.40582584 48:0.36326753 49:0.26746172 51:0.062173632 52:0.028733232 53:0.04834755 54:0.032324671 58:0.0061430604 59:0.20934791 60:0.13060436 67:0.0037116201 68:0.81044679 69:0.0076267108 76:0.16646777 
0 0 1.318677143273465 1.439451836877205 0 0 0 0 0 8:0.075050754 9:0.16994748 10:0.3743701 11:0.00025895024 12:0.00079005566 14:0.00038602022 15:0.00017263349 17:0.054436255 18:0.59418121 19:0.25072918 20:0.25160964 29:0.00090117328 30:0.0034843755 33:0.0021238953 34:0.4727244 35:0.49347903 36:0.096046957 37:0.16706088 38:0.11608164 39:0.060070987 40:0.1182097 41:0.18952202 42:0.15683727 43:0.0014158643 44:0.084298621 45:0.16705863 46:0.0061461964 47:0.39257809 48:0.61163055 49:0.024866171 50:0.0057903033 51:0.010295735 52:0.020366114 53:0.02494991 54:0.0010500885 58:0.12155362 59:0.26772998 60:0.18405177 61:0.05125771 62:0.13414379 64:0.00069590785 65:0.00069053397 68:0.97759355 69:0.023778236 75:0.11116331 76:0.31057975 77:0.12567569 81:0.00065736875 
0 0 0 0 0 0 0.8057483710235385 0 0 17:0.018873076 18:0.38081392 19:0.35716069 20:0.026152028 27:0.22548595 29:0.015133765 30:0.03525447 33:0.0041467988 34:0.24816681 35:0.2822885 36:0.28682384 37:0.039636683 38:0.13530348 39:0.082789733 40:0.44513388 41:0.4123867 44:0.34078565 45:0.73991356 46:0.061570415 47:0.11956431 48:0.29135397 49:0.59856858 50:0.12104405 51:0.12202965 52:0.069254427 53:0.14585179 54:0.031292553 59:0.24481647 60:0.17105242 61:0.050692113 64:0.13682304 67:0.24998095 68:0.61076218 69:0.011988088 72:0.073969931 76:0.14989256 
0 1.134121066862812 0 0 0 0 0 1.448632954979065 1.394694479874252 8:0.085057937 9:0.26836238 10:0.49683567 17:0.0015537014 18:0.50290152 19:0.37024769 20:0.060382894 28:0.0043235658 29:0.0069510442 30:0.0074313764 31:0.0028497601 32:0.0041554734 33:0.037612176 34:0.59546986 35:0.42974616 36:0.015420478 37:0.11952631 38:0.33491293 39:0.068316008 40:0.031565243 41:0.17522338 42:0.36390724 43:0.018190067 44:0.095473672 45:0.11879329 46:0.031521454 47:0.3784956 48:0.61301111 49:0.018030253 50:0.0071809358 51:0.016871125 52:0.01958052 53:0.012212218 54:0.00067415534 60:0.45443483 64:0.024925796 65:0.0069074972 67:0.0027675254 68:0.95970964 69:0.0099249245 76:0.21330268 77:0.2299267 
0 0 0 0 1.338682278596792 0 0 0 0 7:0.11893776 8:0.29403389 10:0.63643919 11:0.0073551795 13:0.15959274 14:0.15487446 15:0.16396633 16:0.010030957 17:0.012358677 18:0.29933042 20:0.31765103 33:0.0048766782 34:0.81527137 37:0.0043851965 38:0.21851477 39:0.66036155 40:0.025854036 41:0.0028951517 42:0.32958998 43:0.23560685 44:0.015633819 47:0.3670033 48:0.53038147 52:0.46641966 60:0.040593309 61:0.24764905 64:0.12332099 65:0.30804422 66:0.04714302 67:0.064027186 68:0.4580395 69:0.30574455 70:0.21090012 71:0.08660575 72:0.28676975 75:0.3359029 76:0.2637868 77:0.0036641433 80:0.096888311 
0 0 0 0 0 0 0 0 1.554841643746348 8:0.022631627 9:0.060446337 10:0.019509597 13:0.033035416 14:0.17351221 17:0.011827138 18:0.78782099 19:0.2471921 20:0.29901836 24:0.043039524 25:0.0022657118 29:0.12216086 30:0.2421866 31:0.11737806 34:0.30611835 35:0.62416088 36:0.10897367 37:0.023765964 39:0.056036005 40:0.65183716 41:0.1463724 42:0.051833099 43:0.01814295 44:0.16847779 45:0.44548583 47:0.20006788 48:0.76040133 49:0.056169589 50:0.0023161213 52:0.43906317 53:0.27709812 55:0.058912428 56:0.035174577 59:0.26349217 60:0.21354166 61:0.11210327 64:0.075358783 67:0.035476793 68:0.81652321 69:0.0039186282 72:0.30300123 76:0.27478572 77:0.12231606 
0 0 0 0 0 1.605745156858486 0 0 0 8:0.024881192 9:0.12981664 10:0.10334973 13:0.19217323 14:0.21734345 15:0.0060446379 17:0.0088906248 18:0.5977183 19:0.12026242 20:0.25878332 21:0.032663904 24:0.053723837 25:0.091671742 30:0.049943483 31:0.45074265 32:0.048535114 33:0.053077454 34:0.12460445 35:0.34050818 36:0.27255046 37:0.0050330879 39:0.044245078 40:0.24963594 41:0.091862193 44:0.004585559 46:0.0036150129 47:0.01073282 48:0.56431662 49:0.0054565233 52:0.50624734 53:0.067416446 55:0.098444643 59:0.025825774 60:0.20983529 61:0.01640869 62:0.030920316 63:0.050229357 64:0.29652027 65:0.0074232401 67:0.19843719 68:0.26595934 69:0.19159599 70:0.012947512 71:0.031774201 72:0.28211451 75:0.14755211 76:0.15739215 77:0.0098158499 80:0.065063158 
0 0 0.9317175877257143 0 0 0 0 0 0 4:0.15220158 5:0.059601572 6:0.0027836314 7:0.15012083 8:0.06118776 9:0.27279749 10:0.57188057 11:0.0038852343 13:0.022121794 14:0.64828348 18:0.1018457 19:0.19580042 20:0.18927393 24:0.090712327 27:0.0053627643 29:0.37823306 30:0.14348474 31:0.00051790047 32:0.0011580607 33:0.18970302 34:0.29627319 35:0.16365172 36:0.003474182 37:0.069221211 38:0.13542631 41:0.0023161213 42:0.00940986 46:0.0028951517 47:0.17681769 48:0.45003466 49:0.0046242059 50:0.0013510708 51:0.029013387 52:0.61340446 60:0.22865189 64:0.50868366 65:0.042249515 66:0.012268218 68:0.32648019 69:0.43022924 70:0.039379377 71:0.00051790047 72:0.040934528 75:0.23885643 76:0.25481228 77:0.028645848 79:0.026358426 80:0.14689491 81:0.071951772 
0 0.6718240562570587 0 0 0.9722790785975671 0 0.5629987504128314 0 0.6162624860619939 1:0.091464876 8:0.058372999 9:0.08462296 10:0.11012066 13:0.10869307 14:0.3125876 17:0.15659893 18:0.66028794 19:0.54500457 20:0.14843029 21:0.070660002 22:0.018242264 23:0.25060103 24:0.086602253 28:0.032419494 29:0.056214969 30:0.043759275 31:0.026911378 32:0.028899543 34:0.49396426 35:0.45306382 37:0.04906389 38:0.021486316 39:0.78055088 40:0.099411654 41:0.056023961 42:0.054021216 44:0.0027621359 45:0.034146974 46:0.02011199 47:0.084218594 48:0.12091539 49:0.076151506 50:0.050768127 51:0.15574142 52:0.044232545 53:0.090470959 54:0.057169282 56:0.020732197 60:0.42328449 64:0.56689353 65:0.074237797 68:0.50948531 69:0.39183938 70:0.0036671921 71:0.0038765734 72:0.10934906 73:0.12467835 74:0.048765924 75:0.17286296 76:0.50881674 77:0.15920073 80:0.13618912 81:0.19782404 
0 0 0.6687729344187345 0 0 0 0 0.5647949551633579 0.6462244082140508 8:0.22064025 10:0.35299626 11:0.028843286 13:0.17409213 14:0.077732774 15:0.23832515 16:0.0021318664 17:0.10133744 18:0.56997222 20:0.51634858 25:0.012998052 34:0.68003091 35:0.28471065 38:0.27692587 39:0.72199939 40:0.047733913 42:0.056671797 43:0.30302592 44:0.305168 45:0.023513987 47:0.12624321 48:0.82282042 52:0.23667033 53:0.11945354 60:0.23730135 61:0.09424926 64:0.14650686 65:0.11014457 66:0.019860018 67:0.15364931 68:0.45679606 69:0.42441585 70:0.0092686792 71:0.13515812 72:0.08711173 75:0.048675214 76:0.37734545 
0 0 0 0 0 0 0.9468338649986692 0 0.8898602149998517 8:0.17260458 9:0.013519528 12:0.11381575 13:0.12390933 14:0.29184216 15:0.00086316746 17:0.12727813 18:0.77085388 19:0.2204301 20:0.17844303 21:0.050373463 22:0.063026042 23:0.090216561 24:0.14987888 33:0.017629951 34:0.69353525 35:0.15841573 38:0.065027063 39:0.63786931 40:0.25306552 44:0.0097714275 46:0.017140735 47:0.062840525 48:0.10613903 49:0.01049928 50:0.010074191 51:0.0056969052 52:0.00057903033 53:0.16355285 54:0.040944448 60:0.080868646 61:0.28446338 64:0.29128343 65:0.14283246 66:0.015404577 67:0.040259432 68:0.68273861 69:0.10987948 70:0.068212694 71:0.0056165611 72:0.29843058 74:0.037046882 75:0.15994693 76:0.30325706 81:0.1559501 
0 0 0 0 0 0 0 0 0.8324123853227543 8:0.0020716019 9:0.0066329238 10:0.17105366 18:0.10950468 19:0.066533704 20:0.0019852852 28:0.19920635 29:0.037157229 30:0.015382797 31:0.12210156 32:0.050197082 33:0.038126161 34:0.21193714 35:0.16074516 36:0.22360413 37:0.24425545 38:0.0022191967 40:0.010201378 41:0.70669444 42:0.03269269 44:0.11378036 45:0.79078336 46:0.12811012 47:0.28900299 48:0.16844393 49:0.31560765 50:0.09422393 51:0.039591921 52:0.037940604 53:0.039121678 54:0.19373271 59:0.15631142 60:0.13237659 67:0.017242068 68:0.59157133 76:0.074402446 77:0.054826899 
0 0 0 0 0 2.589749854402244 0 0 0 17:0.011308069 18:0.29683312 19:0.13364228 20:0.052640049 27:0.14209429 28:0.0067747989 30:0.049383754 31:0.21675578 32:0.07477984 33:0.044404408 34:0.03556627 35:0.17905242 36:0.45802541 37:0.14484221 39:0.0046786543 40:0.24040988 41:0.45377837 42:0.021386816 43:0.017344727 44:0.27649038 45:0.60480671 47:0.13211406 48:0.50314559 49:0.21626585 50:0.046079886 51:0.14889853 53:0.2242187 54:0.039881171 58:0.022582587 59:0.093359168 60:0.16903213 61:0.030193099 62:0.034210736 64:0.055002691 67:0.0043987678 68:0.66602154 71:0.006722185 72:0.061029294 76:0.10365422 
0 0 0 0 0 0 0 0 0.8783136633823204 1:0.0074996289 3:0.050014428 8:0.25222843 9:0.093619141 10:0.22324565 11:0.0038650245 13:0.094864064 14:0.5335201 16:0.0025386517 18:0.40397601 19:0.20762216 20:0.21140095 24:0.14058486 27:0.00085012135 29:0.087201363 30:0.3773065 31:0.13126141 34:0.50443519 35:0.12710244 38:0.0094334371 39:0.058569818 40:0.0037116201 42:8.6316746e-05 46:0.02580351 47:0.25514958 48:0.33643285 49:0.10099016 50:0.012517119 51:0.020372673 52:0.3819012 53:0.27143432 55:0.08049341 56:0.048906797 59:0.038495611 60:0.2601454 61:0.073393789 64:0.26064979 65:0.0056205393 68:0.59154395 69:0.010052103 72:0.34224635 75:0.083640623 76:0.32833109 77:0.023807775 80:0.065155986 81:0.095872918 
0 0 0 0.7499169324571133 0.8307738903195824 0 0 0.7134953656888359 0 8:0.15639702 10:0.0076957563 12:0.0085736473 13:0.26004654 14:0.17476987 17:0.016148852 18:0.77885678 19:0.16383436 20:0.10245139 21:0.014723775 22:0.056594922 23:0.23828131 26:0.0083798402 27:0.082088184 29:0.039988412 33:0.19173891 34:0.27114203 35:0.28222289 37:0.039477716 38:0.089836898 39:0.67183744 40:0.12189471 41:0.028429934 43:0.14820211 44:0.064264304 45:0.067556459 46:0.040832384 47:0.059809488 48:0.27039675 49:0.0010358009 50:0.00057903033 53:0.3718807 54:0.0038947891 60:0.013067759 61:0.080216443 64:0.052028667 65:0.17840299 66:0.035269027 67:0.0085453578 68:0.35631987 69:0.42939593 70:0.058713303 71:0.012448912 72:0.28193082 75:0.10880296 76:0.37399624 80:0.14891082 
0.7395635164053055 0 0 1.658041365364267 0 0 0 0 0 17:0.0029347694 18:0.15262688 19:0.091573184 20:0.00086316746 30:0.021456961 31:0.075236767 32:0.10115858 33:0.041510285 34:0.28865496 35:0.10507519 36:0.37045506 37:0.24735413 38:0.036781063 40:0.097447269 41:0.68854572 42:0.034671515 44:0.071999933 45:1.0928789 46:0.19943392 47:0.28108733 48:0.18996235 49:0.35652758 50:0.08097698 51:0.040430896 52:0.027300664 53:0.11364732 54:0.10278959 59:0.055308212 60:0.10137067 67:0.0020045984 68:0.73963792 69:0.001642414 76:0.10398204 77:0.060070812 
0 2.148068981019152 1.855667386768184 0 0.8309222978248491 0 0 0 0.6784846623575906 8:0.046990389 9:0.052611631 10:0.078431546 13:0.029308684 14:0.20600235 17:0.00077685071 18:0.23963402 19:0.13646411 20:0.14194442 23:0.04128161 24:0.044622502 25:0.026921868 27:0.055539566 28:0.093544741 29:0.1417167 30:0.12082893 31:0.11591364 32:0.00061035156 33:0.0062148057 34:0.14642092 35:0.35709576 36:0.019776734 37:0.078144285 39:0.015190973 40:0.1238208 41:0.036864931 44:0.0081004788 45:0.10800294 47:0.011585519 48:0.55123939 49:0.013576335 50:0.0032811719 51:0.0031937196 52:0.27070188 53:0.28249295 55:0.057485162 59:0.15102011 60:0.17320565 64:0.12300609 67:0.0021911313 68:0.49421194 69:0.016875089 72:0.19874575 76:0.20551078 80:0.0037186392 
0.2438605898617994 0.5857838075651988 0.5307218992440761 0.4574587562261151 0 0 0.4456558894574982 0 0.8847936615905705 8:0.093198237 12:0.010351174 13:0.32090233 14:0.15469027 17:0.1639027 18:0.82133486 19:0.39319608 20:0.2056133 21:0.1530322 22:0.0019683246 23:0.15991383 24:0.059549109 25:0.1667892 27:0.11524539 30:0.0096678609 31:0.037980367 32:0.0059383161 34:0.34516058 35:0.64544106 36:0.0015845648 37:0.0015270991 38:0.34540423 39:0.54201813 40:0.15753013 41:0.12899089 42:0.012256066 44:0.32196808 45:0.082696488 46:0.00081887255 47:0.0042417644 48:0.63504517 49:0.28351644 50:0.0038602022 52:0.21432546 53:0.43796689 56:0.044384772 57:0.046020751 58:0.0088709093 60:0.38824042 61:0.23445809 64:0.18551406 66:0.0050182629 67:0.40648674 68:0.66575239 69:0.0081266196 72:0.38730358 75:0.036878268 76:0.29125797 
-0 3.158514466984154 1.643211112400681 1.42041099985949 1.831169565239404 1.909749304831502 0 2.237039237229914 0 8:0.0049264773 10:0.02439596 11:0.065022356 12:0.071465412 17:0.13582624 18:0.068182536 19:0.10177053 20:0.1098965 21:0.10962097 26:0.21080295 27:0.048440197 31:0.14439498 32:0.11304084 33:0.19703373 34:0.0709363 35:0.17691263 36:0.51408375 37:0.37250521 38:0.051574794 39:0.30744154 40:0.10287215 41:0.40164228 42:0.06276378 43:0.11417468 44:0.13977969 45:0.19625052 48:0.70071618 49:0.029616799 51:0.018908293 52:0.2054583 53:0.12259504 59:0.17854224 60:0.0068190229 68:0.17727456 69:0.035428685 70:0.06740353 71:0.0037901559 75:0.15076272 76:0.076354799 77:0.014579611 78:0.037087082 79:0.070321744 
-0.8303194681327187 1.239400998858579 0.7058464721464376 0 0 1.59658663557485 0 1.151163073770733 0 1:0.065642459 8:0.039972658 9:0.06565583 10:0.022651647 11:0.039536702 19:0.014026936 20:0.0032800363 26:0.0031937196 27:0.033149145 29:0.09167199 30:0.094113217 32:0.44790297 33:0.15029668 34:0.080521208 35:0.45653154 36:0.1374696 37:0.28443548 38:0.10567764 39:0.057323931 40:0.016883949 41:0.73540032 42:0.044458068 44:0.10977473 45:0.47866277 46:0.070269946 47:0.14386097 48:0.59005778 49:0.0067910554 51:0.064956924 52:0.11124761 53:0.12471646 54:0.2211872 68:0.11822535 69:0.057224892 70:0.032378523 71:0.073564727 72:0.032869571 76:0.21857165 77:0.090850519 79:0.0097599013 
-0.7395635164053055 1.236852071999187 0 1.100993052703905 0.7646823900324746 0.988898046876367 1.251173038248836 0 0.6658368820940548 1:0.34629078 2:0.0012947512 6:0.0045707142 7:0.11995411 8:0.12452501 9:0.11214805 10:0.23002582 11:0.016489649 29:0.016537261 32:0.0090148899 33:0.44941666 34:0.21718861 37:0.53402202 38:0.4385964 41:0.071006666 42:0.64828555 43:0.075029908 46:0.41276295 47:0.21921956 50:0.0059106491 68:0.21024593 69:0.18552175 73:0.025723046 74:0.11115555 75:0.11617004 76:0.11378665 77:0.15123895 78:0.28433851 
-2.240920731995981 2.98272542683965 1.494305732757029 0.6861997391334403 1.596534575388763 1.550263410070835 1.278783388088725 1.654030266056102 0.9227079372540491 8:0.087772474 10:0.060338783 11:0.047388115 12:0.081327084 13:0.11769799 17:0.0053516382 18:0.34844469 19:0.067484882 20:0.2147885 24:0.00025895024 25:0.13357218 26:0.082699833 27:0.058076515 29:0.065691288 30:0.13962151 34:0.053332364 35:0.71617379 36:0.074108369 37:0.079157963 38:0.0010500885 39:0.23586158 40:0.53907972 41:0.22339934 42:0.023514484 43:0.0043296259 44:0.057587519 45:0.7307273 48:0.66929116 49:0.093779805 50:0.055659562 51:0.071407746 52:0.31053856 53:0.10398887 54:0.1719543 55:0.012895907 56:0.0099358036 58:0.1399611 59:0.086324667 60:0.30399571 61:0.093035976 62:0.0080053502 67:0.32492135 68:0.13821097 69:0.00051790047 70:0.00073242188 76:0.082386618 77:0.01752485 78:0.040321119 79:0.020808245 
-0 0 0 0 0 1.57498393499276 0 0 0 17:0.004747421 19:0.058936005 20:0.0098151094 26:0.00025895024 27:0.047536757 32:0.14051931 33:0.098363318 34:0.023940724 35:0.073905619 36:0.55830104 39:0.052503729 40:0.27176572 41:0.41639331 43:0.0068212078 44:0.038711447 45:0.98588721 46:0.058110032 47:0.089115966 48:0.24759801 49:0.43040475 50:0.031557714 53:0.027198679 54:0.21435553 59:0.30132212 60:0.040732055 67:0.072930134 68:0.25342229 
-0 0 0 0 0 0 0 0 2.184711960105354 19:0.012251349 20:0.00025895024 26:0.00060421722 27:0.010918337 29:0.013943027 31:0.084320974 33:0.02210939 34:0.075622549 35:0.086709053 36:0.33856647 39:0.025027647 40:0.20376386 41:0.41107461 44:0.0037979368 45:0.67441683 46:0.081708159 47:0.074929306 48:0.037514305 49:0.13460541 50:0.25168934 53:0.017713561 54:0.22308895 58:0.070732695 59:0.16554609 60:0.056280247 61:0.029866318 67:0.013494081 68:0.049754589 
-1.264549695908071 1.400446641216059 1.347131984434589 1.248618904657935 0 1.530002919110344 0 1.52852658736046 0 8:0.0010358009 10:0.0040532123 11:0.0018126517 18:0.010448703 30:0.03029923 31:0.24099612 33:0.18296801 34:0.11175763 35:0.13515253 36:0.25623164 37:0.38985927 38:0.0094911673 40:0.0037989176 41:0.80221401 42:0.037936246 44:0.0031074028 45:0.4082117 46:0.45803159 47:0.26803646 48:0.033149676 49:0.04206487 50:0.041777662 51:0.30450753 52:0.1203777 53:0.0014469323 58:0.0036253033 59:0.0065356085 60:0.0075447595 76:0.050869687 77:0.096535397 78:0.041950801 
-0 1.557309018001742 0 0 0 0 1.475780498969673 0 0 17:0.02149579 18:0.070027526 19:0.13859771 20:0.10949996 21:0.036946088 22:0.23962395 23:0.095238427 26:0.24980613 27:0.23367374 35:0.19246008 36:0.055974062 37:0.011497023 39:0.20956959 40:0.35831119 41:0.090373198 44:0.55421404 45:0.39263007 48:0.14284663 49:0.31108438 50:0.014828275 53:0.034716505 58:0.1219975 59:0.19345357 60:0.087240967 61:0.017656364 62:0.1165532 63:0.18640401 67:0.242539 68:0.19906062 
-0 0 0 0 0 0 0 1.587684470317063 0 10:0.017700616 17:0.00077685071 18:0.036768589 19:0.1336752 20:0.015882281 27:0.090517315 31:0.011062359 34:0.081602242 35:0.22801719 36:0.33241175 37:0.062261152 39:0.16503645 40:0.40945852 41:0.29547164 44:0.034844689 45:0.8743142 46:0.15327412 47:0.095591514 48:0.2568972 49:0.12413862 50:0.52123938 51:0.048049007 53:0.068936286 54:0.18727127 58:0.25714134 59:0.046398137 60:0.14175273 61:0.12915195 67:0.1514997 68:0.1425858 
-0 0 0.8007338693271752 2.234036953647697 0.9700644025827335 0.5803925717261148 1.438528954512535 0 0 17:0.031362746 18:0.1238692 19:0.060742211 20:0.044150028 21:0.047545721 22:0.25265876 23:0.014089738 26:0.016073448 27:0.389894 35:0.17303206 39:0.20851476 40:0.45370678 41:0.029881701 43:0.0091532387 44:0.75341628 45:0.23224192 48:0.13918623 49:0.30837101 54:0.017615808 57:0.012844495 58:0.25096764 59:0.046279121 60:0.091968673 61:0.08027954 62:0.36415054 67:0.37009828 68:0.084039604 71:0.012092049 
-0 0 0 0 0 0 0 1.20140111127366 0 17:0.049152392 18:0.085293684 19:0.20003678 20:0.098722152 21:0.10778783 22:0.032816308 26:0.16787089 27:0.11352505 35:0.21377335 36:0.052209702 38:0.011749862 39:0.14274076 40:0.49581763 41:0.050113507 43:0.0023936367 44:0.5691027 45:0.40681578 48:0.21426116 49:0.31119346 50:0.092629181 52:0.016925347 53:0.036520961 58:0.24107249 59:0.16188619 60:0.044888008 61:0.083674144 62:0.13246382 63:0.19247426 67:0.37583037 68:0.038699836 
-0 1.46631471448912 0 0 0.6519759567825801 0 0 0 0 8:0.0010358009 10:0.0026660559 11:0.0012947512 18:0.0054342951 19:0.015580113 20:0.11773317 21:0.023531566 26:0.1440549 27:0.091101732 31:0.17587958 32:0.22904941 33:0.050236346 34:0.13307489 35:0.15511528 36:0.61856774 37:0.24877408 38:0.19456871 39:0.017144409 40:0.018820287 41:0.7744108 42:0.0042170204 44:0.0031074028 45:0.4537178 47:0.027959868 48:0.59133789 49:0.12836728 50:0.048080829 51:0.15197109 52:0.24558238 53:0.14237238 54:0.056601215 59:0.22315245 60:0.016745449 67:0.0038769935 68:0.019359342 76:0.016690508 77:0.014555573 78:0.0081137741 
-0 0 0 0 0 0 0 1.12344288063386 0 17:0.011659398 18:0.17105898 19:0.11540063 20:0.074685393 21:0.11317084 26:0.0018126517 27:0.37337221 35:0.39536536 36:0.050264745 37:0.0039902244 39:0.10683967 40:0.46404496 41:0.22779894 44:0.26198248 45:0.73996914 48:0.16328287 49:0.59093266 50:0.00019301011 52:0.0037831951 53:0.027718564 54:0.0045951002 58:0.28595434 59:0.13536758 60:0.10538171 61:0.096956841 62:0.30436588 63:0.0080373166 67:0.27532459 68:0.097454522 
-0 0.8472763881066913 1.385894743658082 0 0 0 0 1.23369785623765 0 1:0.069715778 2:0.010284741 8:0.0022442354 9:0.062506736 11:0.00051790047 28:0.15955977 29:0.15854474 32:0.1205214 33:0.32874249 34:0.20847049 35:0.046706587 36:0.047060045 37:0.74452666 38:0.0019349114 41:0.41790723 42:0.38139516 43:0.0036671921 44:0.010559265 45:0.14374572 46:0.34793929 47:0.16395238 48:0.24150828 50:0.074733984 51:0.047397955 52:0.025114433 53:0.010720317 54:0.094006388 68:0.10477147 69:0.021602015 75:0.0054056616 76:0.12000518 77:0.24996268 78:0.018459679 
-0 1.73149549722431 2.042307221784645 0 1.444344654497041 0 0 1.944462563461209 0 8:0.0010358009 9:0.017157331 10:0.013787658 11:0.0021579186 19:0.028126932 20:0.0093431217 26:0.02108926 27:0.032801775 28:0.081782885 29:0.033901719 30:0.021330096 31:0.073777435 32:0.30392548 33:0.068836125 34:0.094080209 35:0.37796053 36:0.15245726 37:0.23816523 38:0.15177808 40:0.012293699 41:0.72560688 42:0.0084170999 43:0.0025909406 45:0.2024364 46:0.01113647 47:0.26151766 48:0.4343835 49:0.044351312 50:0.10102512 51:0.16992854 52:0.15855194 53:0.19695858 54:0.18103842 58:0.010935414 59:0.015592811 60:0.010471971 76:0.041519058 77:0.0034795393 78:0.046028433 
-0 0 0 0 0 0 2.692706856504319 0 0 19:0.0068090236 20:0.0012947512 26:0.0018148082 27:0.0034048647 28:0.044982952 31:0.0099537842 32:0.096294722 33:0.050773987 34:0.17466734 35:0.12264262 36:0.28043609 37:0.013999554 39:0.031466015 40:0.24799462 41:0.51649977 44:0.0079470228 45:0.8633501 46:0.17777004 47:0.10332581 48:0.034356342 49:0.2311798 50:0.38737002 51:0.0063874392 53:0.0039006133 54:0.35903445 58:0.0075031052 59:0.17743864 60:0.039639065 67:0.019985064 68:0.11971805 
-1.596464850393918 3.86017417564352 6.906407722127991 2.725347026269786 3.115814739844278 1.279933436338452 0.6959809126636411 1.860568446739015 2.279661535178732 19:0.062042014 20:0.033533945 21:0.010069572 26:0.097132874 27:0.030663436 28:0.15018787 29:0.00086316746 30:0.005923241 32:0.036631081 33:0.14520334 34:0.077097136 35:0.0199184 36:0.089085456 37:0.10732862 39:0.018631456 40:0.12180465 41:0.28107644 44:0.015623776 45:0.36201652 48:0.15096298 49:0.29231573 50:0.0033086055 52:0.013528618 53:0.16587477 54:0.041273848 59:0.066773384 60:0.027804172 67:0.014169762 68:0.074064411 
-0 0 0 2.981226210160057 0 0 3.155602064005897 1.666460183084418 1.928172442541898 10:0.04489785 11:0.049161611 12:0.044415648 13:0.088339174 15:0.0078263161 17:0.26232987 18:0.12085233 20:0.073946951 21:0.082433334 22:0.0015537014 31:0.032568876 34:0.022368698 35:0.32842743 36:0.16685765 37:0.0657263 38:0.070987714 39:0.18795829 40:0.41538754 41:0.34510763 44:0.34899843 45:0.47269668 46:0.2305701 47:0.08602075 48:0.039159043 49:0.0628167 50:0.50079528 54:0.30750268 58:0.17170252 59:0.10513544 60:0.049097956 61:0.087548962 62:0.0091695039 67:0.029721338 68:0.17729083 
-0 0 1.02690446342271 0 0.6889521662721099 0 0 0 0 17:0.01320981 18:0.058676621 19:0.082739822 20:0.1009776 26:0.0019010224 27:0.19359586 35:0.17247318 36:0.09613261 37:0.023107913 39:0.11365545 40:0.40056674 41:0.15202144 44:0.20289018 45:0.5612948 46:0.01226184 47:0.096631821 48:0.04981139 49:0.23048489 50:0.16999544 51:0.049435428 53:0.011028632 54:0.037557209 58:0.17675676 59:0.080812272 60:0.083301124 61:0.065327744 62:0.0054648244 63:0.14205375 67:0.052414795 68:0.14235209 
-0 1.777788372481559 1.853467124061273 1.192123446224719 0 0 1.725976155962823 0 0 17:0.00051790047 18:0.0075266479 19:0.0081838289 20:0.00077685071 27:0.0059207248 32:0.10182546 33:0.085197268 34:0.35240147 35:0.10708793 36:0.36288615 37:0.0004648299 38:0.00051790047 39:0.00031121945 40:0.20430579 41:0.41809948 44:0.006071296 45:0.88307519 46:0.2625378 47:0.28996509 48:0.073794365 49:0.19024819 50:0.46251847 54:0.18176518 59:0.11996095 60:0.062141521 67:0.0090985229 68:0.39145877 71:0.017582135 72:0.0091132568 73:0.023824992 74:0.014411545 76:0.00086316746 77:0.047002008 
-3.82675093006355 1.461155981193599 0 1.596013033898465 1.216614535775704 1.950412669686282 0 0 0 10:0.051920564 17:0.0067327062 18:0.04093341 19:0.10505498 20:0.072034838 26:0.010974454 27:0.12936206 29:0.00017263349 31:0.01411193 32:0.006498453 33:0.026371576 34:0.23652987 35:0.23694571 36:0.43090608 37:0.15813662 38:0.069234085 39:0.073527402 40:0.13352387 41:0.24915665 42:0.0039855536 44:0.10117318 45:0.68661162 46:0.04214352 47:0.29839619 48:0.25273102 49:0.35077994 50:0.15748209 52:0.002709026 53:0.21968623 54:0.010375977 58:0.12260862 59:0.11896498 60:0.27378756 67:0.043918137 68:0.59956173 76:0.02899494 
-1.596071622629897 2.029468810899136 0 0 0 0 0 1.17993302185762 0 10:0.016665392 17:0.0026758191 18:0.041643553 19:0.067508564 20:0.024765066 26:0.0010358009 27:0.14762058 31:0.017581939 32:0.13589126 33:0.14155073 34:0.22768097 35:0.13552304 36:0.45567379 37:0.10702933 39:0.00057903033 40:0.14703925 41:0.55934539 42:0.072302832 44:0.024951522 45:0.83680235 46:0.006653112 47:0.11388805 48:0.36385663 49:0.53718667 50:0.0048652902 51:0.00025895024 53:0.11859756 54:0.14116862 58:0.00090117328 59:0.14773084 60:0.044708219 67:0.00025895024 68:0.25855099 76:0.021775733 
-0 0.5857299867302814 2.36807840506898 0 0 0 2.702227718012105 3.989908388395956 3.557967194169012 8:0.00086316746 10:0.0027540318 11:0.0014673847 17:0.004747421 18:0.035755898 19:0.12385962 20:0.014501213 26:0.0019852852 27:0.16724742 33:0.082368864 34:0.19626841 35:0.36173396 36:0.2172873 37:0.36143031 38:0.01297981 39:0.042457851 40:0.2236743 41:0.13733212 43:0.00027295752 44:0.088406917 45:0.56658856 46:0.11366456 47:0.25290527 48:0.18817971 49:0.44456027 50:0.28290834 53:0.10679015 54:0.14663679 59:0.085379223 60:0.29608 67:0.22898278 68:0.45808723 76:0.020461379 
-0 0 0 0 0 2.658112430457343 0 0 0 17:0.014262381 18:0.17116723 19:0.11414408 20:0.069140517 27:0.19495747 32:0.010974454 34:0.0071021427 35:0.25079393 36:0.37355622 37:0.0020877236 39:0.16427696 40:0.46759907 41:0.097450126 44:0.46982572 45:0.55974226 47:0.095095635 48:0.24671194 49:0.25814237 50:0.21300067 51:0.00017263349 53:0.0049464843 54:0.055841053 58:0.11872218 59:0.41700276 60:0.068868249 61:0.075927189 62:0.030955115 63:0.14020977 67:0.14460805 68:0.3076359 
-0 0 0 0.9504275738770148 0 0 0 3.590648585566592 1.991873419665485 17:0.0076821904 18:0.10947035 19:0.16560483 20:0.03467302 21:0.084604271 26:0.0032800363 27:0.35971496 32:0.01914851 33:0.0061690814 34:0.046708846 35:0.30468812 36:0.29752113 37:0.24488491 38:0.0025031856 39:0.15852252 40:0.34328444 41:0.25702627 44:0.3229111 45:0.45246582 46:0.010544077 48:0.16253443 49:0.62761095 50:0.016022193 53:0.013220277 54:0.084891533 58:0.13568645 59:0.18789958 60:0.11242911 61:0.099196528 67:0.13091602 68:0.28030155 
-1.385592883205267 1.36627664767491 0 2.192314192508077 0 2.216680356209896 0 0.8579841902918021 2.095338394205289 17:0.077752861 18:0.29021569 19:0.08335068 20:0.11167393 21:0.22173073 26:0.072929531 27:0.12270293 35:0.35142651 37:0.014615706 39:0.15389948 40:0.59739132 41:0.10440267 42:0.016491575 43:0.0077377559 44:0.59803306 45:0.2800697 48:0.21126755 49:0.25169887 58:0.1634954 59:0.057694236 60:0.13299348 61:0.12854916 62:0.13832095 63:0.0064113067 64:0.022898209 65:0.026583843 66:0.016965412 67:0.36088956 68:0.04224429 70:0.0095214844 71:0.015883673 72:0.0027634842 
-0 0 0 0 0 0 0.9237906874538518 0 0 1:0.062407171 8:0.0081137741 9:0.07544992 11:0.0043158373 28:0.06708335 29:0.18540753 33:0.45435378 34:0.19654142 35:0.095566959 36:0.048663051 37:0.98409863 38:0.015365069 41:0.55572456 42:0.32384756 43:0.011103606 46:0.62388097 47:0.14871501 48:0.09702435 49:0.029661011 50:0.026804651 51:0.1877743 52:0.0065110524 68:0.11752742 69:0.019368448 75:0.035748995 76:0.098225978 77:0.26989977 78:0.084711647 
-0 0 0 0 0 0 0 1.969340239552413 0 28:0.068715779 30:0.0013510708 31:0.046488908 32:0.15072643 33:0.048902158 34:0.065820718 35:0.05395332 36:0.14055061 37:0.32316812 41:0.51551202 42:0.00051790047 45:0.19563187 46:0.2643767 47:0.082214325 48:0.029124958 49:0.062700891 50:0.29808796 51:0.025917011 52:0.0052152923 54:0.073111919 58:0.00060421722 59:0.00085449219 60:0.00060421722 76:0.00025895024 77:0.0011580607 78:0.00025895024 
-0 0 0 0 0 0 0 1.630613762370589 0 17:0.0012084344 19:0.055539294 20:0.030010367 26:0.0030210861 27:0.20233575 28:0.13748651 30:0.036959093 31:0.061115726 32:0.045272454 33:0.049147515 34:0.19442417 35:0.17963741 36:0.17361435 39:0.013124688 40:0.23103473 41:0.56067962 44:0.0081400965 45:0.8038717 46:0.036860889 47:0.089406835 48:0.041799413 49:0.43060509 50:0.23631177 53:0.19435557 54:0.13424072 58:0.056300322 59:0.13966787 60:0.051884801 67:0.034526834 68:0.013124688 
-0 0 0 0 0 0 0 0 1.365565146044908 28:0.063476128 32:0.19023929 33:0.071503504 34:0.059754288 35:0.024705528 36:0.19405828 37:0.43119383 41:0.60308272 43:0.0027796137 45:0.17338061 46:0.13708623 47:0.072809642 48:0.026291831 49:0.058173298 50:0.27169961 54:0.16630093 
-0.6012720492825345 0 0 0 0 0 0 0 0 17:0.00086316746 18:0.005260854 19:0.011908427 20:0.00025895024 27:0.0048866257 28:0.21402109 30:0.010804826 32:0.31844942 33:0.17425554 34:0.11578589 35:0.04956089 36:0.22692071 39:0.0011580607 40:0.0015537014 41:0.91954584 42:0.014577237 44:0.0045196035 45:0.93324064 46:0.25454384 47:0.13772647 48:0.1073858 49:0.13164856 50:0.37600824 54:0.11351138 58:0.0026590602 59:0.0047748064 60:0.0042295205 67:0.00051790047 68:0.0023161213 
-0.9015567124011488 0 0 0 0 0 0 0.9722866571516101 0 17:0.031876017 18:0.11769317 19:0.20735786 20:0.077563155 26:0.00025895024 27:0.15791283 32:0.020319849 33:0.1406 34:0.14266091 35:0.1751157 36:0.3547621 39:0.040554521 40:0.28279157 41:0.40232517 44:0.31724882 45:0.69010597 46:0.12930302 47:0.038143115 48:0.17854401 49:0.75141592 50:0.001737091 53:0.0072941481 54:0.044662558 59:0.10450601 60:0.2022297 67:0.13029142 68:0.25257078 76:0.0022442354 
-0 0 0 0 1.103915184847491 0 0 0 0 1:0.067997363 8:0.0018126517 9:0.047970751 10:0.026210069 11:0.0022442354 28:0.122872 29:0.084573001 32:0.37454471 33:0.11017643 34:0.10022327 35:0.29859612 36:0.044243731 37:0.96033171 38:0.038019835 40:0.0051515986 41:0.52913135 42:0.28038005 43:0.07935942 46:0.44878875 47:0.14968979 48:0.1736987 49:0.066416464 50:0.08312793 51:0.049132425 52:0.0059062355 68:0.15519831 69:0.048686991 76:0.11342097 77:0.24012797 78:0.010867001 
-0 0 0 0 0 0 1.247321249946169 1.383720531502024 0.6292171153383679 1:0.022688829 8:0.0056969052 9:0.01875379 10:0.01849883 11:0.0018126517 19:0.049675877 20:0.0084115654 26:0.033495154 27:0.038787784 28:0.076171539 29:0.054912114 30:0.090778756 31:0.0077204981 32:0.26607679 33:0.079474718 34:0.047669496 35:0.39019327 36:0.0072199303 37:0.060407532 38:0.03474645 39:0.071395261 40:0.0047253984 41:0.5343992 45:0.46229888 46:0.022778791 47:0.042386217 48:0.26644636 49:0.15174308 50:0.21209743 51:0.046404614 53:0.19486792 54:0.17957524 58:0.0032868438 59:0.0069522075 60:0.0025621683 67:0.00060421722 
-0 0 0 0.6843061690807704 0 0 0 0 0 32:0.21576581 33:0.18575662 34:0.023425565 35:0.12190474 36:0.34098361 37:0.2937772 39:0.007835075 40:0.035376086 41:0.86270968 44:0.0063874392 45:0.63739077 46:0.36591788 47:0.072790558 48:0.07536395 49:0.070178642 50:0.51549089 54:0.17469752 59:0.019390449 60:0.0047058524 67:0.0042548774 68:0.032363899 
-1.716765477746799 1.167193892448779 3.275629363192572 2.187470921324475 1.48741157273507 0 0 4.761348022867118 2.146444840422311 1:0.077634431 8:0.014673847 9:0.037833527 11:0.009840109 17:0.00060421722 19:0.011554745 20:0.00060421722 27:0.011554745 28:0.082568575 29:0.16361411 32:0.21091221 33:0.3323849 34:0.15499946 35:0.35726756 36:0.0088068593 37:0.58759509 38:0.069482972 40:0.032903985 41:0.47077942 42:0.21187196 43:0.00024414063 44:0.0056703594 45:0.37932882 46:0.16569109 47:0.26569509 48:0.12931436 49:0.37643168 50:0.16080942 53:0.014380389 54:0.24290273 60:0.0073942144 68:0.32402784 69:0.027195803 76:0.056359245 
-0 0 0 0 0 1.006665948803098 0 0 0 17:0.015972481 18:0.17187695 19:0.2831268 20:0.043793761 21:0.099680048 22:0.029970313 26:0.0014673847 27:0.38055515 34:0.0023998539 35:0.26992049 36:0.23891985 39:0.10960428 40:0.44117628 41:0.23036961 44:0.41425012 45:0.59145552 48:0.086546054 49:0.6952075 50:0.008685455 53:0.0098559961 54:0.027226879 58:0.29030456 59:0.097146404 60:0.058975616 61:0.16764312 62:0.15254147 67:0.24808155 68:0.16767865 
-0 2.946007182320256 0.9820088888214422 0 1.637470789846472 0.6081670021251274 0.961102593182211 0 0 1:0.095183469 2:0.09332412 3:0.0099485432 8:0.13641759 9:0.010397873 19:0.11471223 20:0.083030136 21:0.086502448 25:0.084364704 26:0.081342725 27:0.040693112 28:0.12298786 29:0.10685613 30:0.30153111 31:0.0064737559 32:0.43399544 33:0.074707859 34:0.26756393 35:0.22304899 36:0.082956071 37:0.2153785 39:0.0028951517 41:0.47553293 42:0.039305882 43:0.06724445 44:0.00051790047 45:0.32920211 47:0.011158589 48:0.72043822 49:0.039053393 52:0.41564592 53:0.15949561 59:0.0062113327 60:0.0031980247 67:0.0012947512 68:0.003474182 69:0.017021611 70:0.18872025 71:0.043704358 72:0.008205561 74:0.049425213 75:0.47724974 76:0.061102795 77:0.036871403 78:0.078026128 79:0.20826702 80:0.056713321 
-0 0 1.269769046102549 3.511999330111825 0.7321819277082707 0 5.386211369621064 4.546650227236272 4.394469172539053 8:0.015835831 10:0.020862599 11:0.076411321 17:0.0012947512 18:0.16047659 19:0.12951493 20:0.086278419 26:0.0049200545 27:0.30436569 34:0.02794917 35:0.60569569 37:0.076031822 38:0.13457307 39:0.29240167 40:0.37396082 41:0.21309435 43:0.042400291 44:0.27655038 45:0.44933577 47:0.032194179 48:0.16627822 49:0.4847755 50:0.30972393 53:0.19591141 54:0.18298089 58:0.13213939 59:0.099431009 60:0.077863646 61:0.080154288 62:0.12048475 67:0.19121327 68:0.21777583 
-0 0 0 1.356179057324291 0 0 0 0 0 10:0.012065216 11:0.0037116201 17:0.0077685071 18:0.013861566 32:0.2064813 33:0.11040348 34:0.011386288 35:0.095847497 36:0.27326957 37:0.1512396 38:0.12611576 39:0.052002132 40:0.019680407 41:0.67446648 42:0.007791969 44:0.058824195 45:0.46357102 46:0.37587417 47:0.080510077 48:0.048895666 49:0.045158696 50:0.28195012 51:0.04672781 52:0.0040532123 76:0.0062148057 77:0.043420584 78:0.0087017879 
-0 0 0 0.5968023931793033 0 0 0 0.8814080525041837 0 10:0.0034838191 17:0.00025895024 18:0.0045949856 19:0.0025503641 20:0.0010358009 32:0.08044053 33:0.25811412 34:0.12525681 35:0.15490901 36:0.36325946 37:0.36012345 39:0.0096505056 40:0.3349764 41:0.58130579 44:0.0040415489 45:0.61179407 46:0.60923747 47:0.11578541 48:0.076851183 49:0.084893919 50:0.52549771 51:0.0085453578 52:0.0063693337 59:0.079522498 60:0.021348342 67:0.016499653 68:0.10305771 76:0.0028484526 77:0.012738667 78:0.0028484526 
-0 0 0 0 0 0 1.622318925985534 0 0 17:0.0032800363 18:0.022235215 19:0.22403734 20:0.030881515 26:0.0040568871 27:0.1991296 31:0.0084823497 32:0.089492573 33:0.055238469 34:0.28211775 35:0.072386836 36:0.36394249 37:0.030343094 39:0.0028951517 40:0.55015918 41:0.32590654 43:0.0054324718 44:0.042380643 45:0.7566389 46:0.060810393 47:0.043509462 48:0.083711327 49:0.64536268 50:0.10531922 51:0.010972756 53:0.15994821 54:0.064189432 59:0.14676778 60:0.075953132 67:0.051685943 68:0.11591125 
-0 2.690758577431307 1.705754181003625 0 1.01965910365123 0 0 3.385940104276259 1.04228062203866 19:0.26879999 20:0.076248408 25:0.0020895072 26:0.11451409 27:0.10265284 31:0.02293428 34:0.12077991 35:0.27555243 36:0.18932403 37:0.29444097 38:0.03623371 39:0.033044355 40:0.52431387 41:0.21656948 44:0.042056182 45:0.5980602 46:0.0056370849 47:0.2053777 48:0.10874753 49:0.22458933 50:0.20267014 51:0.13114529 52:0.1852436 53:0.021703127 58:0.11453638 59:0.10889632 60:0.071905044 61:0.087443993 67:0.091887456 68:0.18235863 
-0.7186190120698519 0 0 0 0 0 0 0 0 17:0.005437955 18:0.089944845 19:0.15675631 20:0.042356532 26:0.045970463 27:0.19858761 32:0.026112804 33:0.00382238 34:0.23922323 35:0.24332988 36:0.30964389 37:0.12385005 39:0.057584398 40:0.42907399 41:0.21774871 43:0.00036621094 44:0.06675157 45:0.79073515 46:0.14645296 47:0.084228565 48:0.2268111 49:0.36153254 50:0.28399297 52:0.04319737 53:0.085223449 58:0.0064737559 59:0.20846819 60:0.1368719 61:0.061161599 67:0.10526258 68:0.3664005 76:0.00077685071 
-1.302282498422692 0 0 0 0 0 0 0 0 17:0.010271693 18:0.32020079 19:0.15189076 20:0.11469875 21:0.11247084 26:0.0021579186 27:0.26091076 33:0.0022706391 35:0.27568656 36:0.3351745 39:0.10722596 40:0.685855 41:0.064484007 44:0.3170196 45:0.59900505 48:0.12988765 49:0.5124222 50:0.0013510708 54:0.0042330422 58:0.13295014 59:0.22983364 60:0.12095569 61:0.03864948 62:0.11976612 67:0.17655607 68:0.21402867 
-0 1.649510205835198 0 0 0 0 0 0 0 8:0.00051790047 9:0.009582066 10:0.0071033947 11:0.0010358009 19:0.0029663337 20:0.00043158373 26:0.0025031856 27:0.003857306 28:0.081470975 29:0.040369598 30:0.0361061 31:0.006682165 32:0.31137401 33:0.1284342 34:0.049556654 35:0.22809809 36:0.28642446 37:0.24170033 38:0.10001785 39:0.013454411 40:0.0086003486 41:0.72680197 45:0.46773914 46:0.042537162 47:0.23340955 48:0.34821218 49:0.04008995 50:0.14097017 51:0.10008941 52:0.14757116 53:0.088122066 54:0.2527543 59:0.019027182 60:0.0039394409 67:0.001494818 68:0.010705193 76:0.03558946 77:0.051692604 78:0.051085452 
-0 0 0 1.297671177259141 0 0 0.7103956603611834 0 1.408073375083407 10:0.035399807 11:0.017177264 17:0.019279526 18:0.036026711 31:0.0802898 32:0.13621825 33:0.088645093 34:0.1578206 35:0.054313869 36:0.3517688 37:0.10270117 38:0.30379508 39:0.017741342 40:0.021524002 41:0.85812354 42:0.0029347694 44:0.296264 45:0.35930405 46:0.45822115 47:0.036125669 48:0.067571401 49:0.087426198 50:0.49810261 54:0.10603159 58:0.017132733 59:0.026610908 60:0.031377213 67:0.005690086 68:0.001737091 
-0 0 0 1.22368602640714 0 1.992779937237855 0 0 0 17:0.0018126517 18:0.013494939 19:0.044990577 20:0.00060421722 27:0.038180421 31:0.10168753 32:0.046247494 34:0.11927272 35:0.22124817 36:0.41414934 37:0.1605005 39:0.019341583 40:0.33424116 41:0.48184772 42:0.068340106 43:0.0023161213 44:0.026400669 45:0.76825835 46:0.10316281 47:0.16568257 48:0.051666253 49:0.42799232 50:0.059877302 51:0.13098315 54:0.21580692 58:0.078453343 59:0.1793672 60:0.11845753 61:0.0042506068 67:0.034026067 68:0.0837266 69:0.0010358009 76:0.0010358009 77:0.0014648438 
-0 0 0 1.894976805877613 0 0 0 0 0 17:0.00043158373 18:0.0036128792 19:0.070806133 20:0.0069053397 27:0.066025562 32:0.031282408 33:0.025968146 34:0.10280392 35:0.1283999 36:0.32885672 38:0.013120145 39:0.15904748 40:0.26470184 41:0.37574045 44:0.02331828 45:0.87392066 46:0.085807862 47:0.13482716 48:0.068892939 49:0.28566689 50:0.24877167 53:0.049923385 54:0.20866797 59:0.21678889 60:0.10821839 61:0.011272848 67:0.061154239 68:0.15828505 
-0 0 0 1.311859409331935 0 0 0 0 0 17:0.0014673847 19:0.0098635774 20:0.0012084344 27:0.010353189 31:0.0075504522 32:0.28958209 33:0.12150895 34:0.039919535 35:0.042666616 36:0.40578351 39:0.045454636 40:0.064259095 41:0.61934212 42:0.077106962 43:0.074549495 44:0.010879476 45:0.85990358 46:0.15599903 47:0.12694932 48:0.03736299 49:0.50422864 50:0.0028951517 53:0.0063722574 54:0.21595999 58:0.0051460945 59:0.0049472373 60:0.0048061733 67:0.02582647 68:0.02900877 69:0.029524848 
-0 0 1.226672832776304 0 1.165333486121573 0 0 1.31466332003174 1.504535869185472 1:0.14151759 2:0.14191745 6:0.052697416 7:0.088028978 8:0.10943164 9:0.10085901 10:0.17104715 11:0.017191276 29:0.020802336 33:0.31674587 34:0.21091567 37:0.68238708 38:0.20965318 39:0.0044232595 41:0.25220087 42:0.63754514 43:0.044360934 46:0.52548342 47:0.22337087 51:0.052397787 52:0.010201821 68:0.034235554 69:0.08402005 73:0.021668082 74:0.055464527 75:0.074193202 76:0.064104948 77:0.24921874 78:0.31515962 
-0 0.7161230672266506 0 0 0 0 0 0 0 17:0.00060421722 19:0.095159901 20:0.025686156 26:0.0032800363 27:0.14612934 31:0.15756728 32:0.018234911 33:0.044926602 34:0.16980335 35:0.15973122 36:0.28810694 37:0.010320899 39:0.0040532123 40:0.1646528 41:0.72216433 44:0.0017826545 45:0.90819026 46:0.035632929 47:0.079593259 48:0.115883 49:0.60797633 50:0.031136948 53:0.13900339 54:0.22588135 58:0.0018148082 59:0.11727089 60:0.036527685 67:0.0065733938 68:0.029604356 
-0 0 0 1.405751237414902 0 0 0 0 0 19:0.035691798 20:0.00086316746 26:0.00077685071 27:0.025782771 32:0.24394045 33:0.048747508 34:0.24599416 35:0.11333532 36:0.45540205 37:0.12416298 39:0.041450197 40:0.22841515 41:0.57854913 44:0.00086316746 45:0.87883345 46:0.030252038 47:0.21861056 48:0.053239849 49:0.31915054 50:0.25494048 53:0.044209817 54:0.33437407 59:0.16364906 60:0.019657355 67:0.022517463 68:0.19793619 
-0 0 0 2.093345097572338 0 0 0 0 0 17:0.0061284889 18:0.13958292 19:0.1464246 20:0.039289209 21:0.063052656 22:0.14226259 23:0.045388001 26:0.0079411406 27:0.31873022 35:0.26680316 36:0.071169512 38:0.015669996 39:0.13970734 40:0.5380033 41:0.081403325 42:0.013105657 43:0.0013918157 44:0.3908231 45:0.49309312 48:0.080432305 49:0.36079463 50:0.017108802 54:0.022832044 58:0.18786853 59:0.10745691 60:0.054951146 61:0.10119798 62:0.043866151 63:0.10523769 67:0.21414828 68:0.087041382 
-0 0 0 0 0.604883095397314 0 0 0 0 17:0.00086316746 19:0.0036857686 20:0.00051790047 27:0.0019301011 30:0.12614016 31:0.091806563 34:0.2394727 35:0.258234 36:0.29172658 37:0.11969185 39:0.024267327 40:0.090635485 41:0.84740204 44:0.0019301011 45:0.83071224 46:0.32302525 47:0.10579055 48:0.059194715 49:0.059426291 50:0.51613813 53:0.0025895024 54:0.10085474 58:0.16867788 59:0.050857047 60:0.091282668 61:0.071815884 67:0.013400343 68:0.0032811719 
-0 0 0 0 0 0 5.464862651699065 0.6181802006525398 0 1:0.034036094 8:0.0063874392 9:0.018326206 11:0.0018126517 28:0.11654234 29:0.19788105 32:0.21389541 33:0.1387992 34:0.25749661 35:0.23017914 36:0.0056746286 37:0.28595914 38:0.011548369 40:0.029809446 41:0.72869893 42:0.12411734 45:0.67633374 46:0.20226414 47:0.055775121 48:0.061562873 49:0.37693741 50:0.21656124 53:0.0010358009 54:0.35609241 59:0.014397752 60:0.00601586 68:0.11084133 76:0.03397619 77:0.026385266 
-0 0 0 0 0 0 2.773818590039761 0 4.203263414559199 1:0.0070331482 8:0.00060421722 9:0.0030809154 11:0.00043158373 28:0.12486548 29:0.14694762 32:0.089586792 33:0.18389503 34:0.1805926 35:0.099823759 36:0.038440223 37:0.16840092 38:0.0044403047 39:0.007168147 40:0.026907725 41:0.65031554 44:0.0016400182 45:0.51612765 46:0.12728794 47:0.084089753 48:0.034077857 49:0.12114264 50:0.44947831 53:0.0016400182 54:0.38730259 59:0.0062363475 60:0.0068138114 67:0.0012084344 68:0.011267068 
-0 0 0 1.342264693169366 0 0 3.075300858202811 0 1.754352583145306 17:0.010271693 18:0.077566341 19:0.13676252 20:0.038235125 21:0.063628648 22:0.1513337 23:0.053301691 26:0.0052653215 27:0.37916398 35:0.12920848 36:0.10492869 39:0.20457222 40:0.42206402 41:0.033430503 44:0.59090319 45:0.38206137 48:0.084465451 49:0.38807589 50:0.033101564 51:0.011273178 53:0.041017169 58:0.0051969563 59:0.26626626 60:0.044161493 61:0.084872065 62:0.045369442 63:0.14324526 67:0.24504192 68:0.18699927 
-0 0 0 1.80929272979919 0 0 0 0 0 11:0.022090202 17:0.021780203 18:0.017700616 28:0.07869294 29:8.6316746e-05 31:0.0027104008 32:0.28555422 33:0.070649739 34:0.042133209 35:0.04977781 36:0.27570027 37:0.2035783 38:0.030406493 39:0.030030423 41:0.70997216 42:0.020554092 43:0.028205009 44:0.031432846 45:0.47421737 46:0.10061644 47:0.036924117 48:0.078501059 49:0.072441094 50:0.27703832 54:0.24516534 58:0.0017477809 59:0.0054524646 60:0.0029491059 67:0.00060421722 70:0.0075491384 71:0.0315297 72:0.031915987 73:0.035061978 74:0.044033125 
-0 0 0 0 0 1.988180368871955 0 0 0 10:0.0028102696 17:0.00043158373 18:0.0040681883 19:0.0020859384 20:0.00086316746 28:0.013614261 30:0.031591104 31:0.2061336 34:0.11581935 35:0.16583252 36:0.43563465 37:0.11983773 39:0.017050227 40:0.070605979 41:0.77822411 43:0.0021231112 44:0.0087191314 45:0.73855881 46:0.38091512 47:0.18936157 48:0.057031783 49:0.082267562 50:0.26511467 51:0.1108238 52:0.0063693337 58:0.19090081 59:0.041420102 60:0.085687936 61:0.045704904 67:0.0089532839 68:0.001737091 76:0.0042622553 77:0.0058270747 78:0.0028484526 
-1.600517286864879 1.14222817433693 0 4.254453319013858 0 1.264036911572479 0 3.023463720327458 1.396893537202444 10:0.099811698 17:0.040605749 18:0.17797856 19:0.027545322 20:0.093925954 32:0.072571941 33:0.044375959 34:0.15913064 35:0.10744113 36:0.37214868 37:0.10346923 38:0.066050716 39:0.078183543 40:0.27031816 41:0.57272825 42:0.0077204044 44:0.44618584 45:0.40475777 46:0.43564732 47:0.10322328 48:0.22518882 49:0.24182159 50:0.24540765 58:0.00025895024 59:0.20423133 60:0.12680929 67:0.04275275 68:0.21880798 76:0.0017263349 77:0.074171615 
-0 0 1.486235617576963 0 0 0 0 0 1.51237173836629 19:0.04392613 20:0.021146447 26:0.0021579186 27:0.14035288 32:0.11397819 33:0.051143018 34:0.17403068 35:0.17716074 36:0.3227844 37:0.21608474 38:0.0053544219 39:0.019725808 40:0.26726316 41:0.46119949 44:0.0077685071 45:0.64161483 47:0.090456963 48:0.13501152 49:0.61229396 50:0.05810148 53:0.16304914 54:0.29948086 59:0.16751337 60:0.038608582 67:0.034460329 68:0.15352775 
-0 0 0 0 0 2.502665421906832 0 0 0 17:0.00043158373 18:0.006897718 19:0.096287755 20:0.039270294 26:0.0077685071 27:0.14248231 29:0.0025503641 30:0.072977346 31:0.11663713 32:0.081461232 33:0.061346218 34:0.10970038 35:0.16302704 36:0.36627222 39:0.0027021416 40:0.15627412 41:0.67670159 44:0.020722299 45:0.8337771 47:0.10832876 48:0.11856411 49:0.47234093 50:0.0011580607 51:0.015829889 53:0.11951503 54:0.12590266 58:0.10897197 59:0.012824706 60:0.09662248 67:0.0041444729 68:0.008908947 
-0 0 0 0.8660703495016278 1.049091427803732 0 1.417153945869878 0 1.159743881168086 8:0.03546892 10:0.065219549 11:0.050047252 12:0.017456482 17:0.0021579186 18:0.16236091 19:0.032719003 20:0.0063874392 26:0.0069053397 27:0.014979375 29:0.023182113 31:0.01468552 32:0.20661455 33:0.15275017 34:0.056073908 35:0.28645551 36:0.175532 37:0.52149791 38:0.054754841 39:0.098932805 40:0.18176722 41:0.78286054 42:0.00077685071 43:0.023996211 44:0.048342618 45:0.033211202 46:0.15059097 47:0.14133598 48:0.24322484 49:0.21461988 50:0.082647789 51:0.18500693 52:0.012264574 53:0.25673251 54:0.13032026 60:0.00025895024 68:0.0055960005 76:0.011804147 77:0.02040469 78:0.022836401 
-0 2.084802831491237 0 0 0 0 0 0 0 28:0.089498525 29:0.0012947512 32:0.11505319 33:0.10042633 34:0.040883476 35:0.0086794812 36:0.11141448 37:0.10572311 38:0.0051595469 41:0.46017509 44:8.6316746e-05 45:0.35414273 46:0.18514803 47:0.01339753 48:0.038221332 49:0.040635958 50:0.2102264 54:0.057591674 
-1.202135908081762 1.075835599460545 0.8378430999722396 0.7986228019726037 0.8518060501323411 0.8398120435434916 1.150454998371004 0.7106174470702442 1.011900307699118 7:0.19172117 8:0.1020609 9:0.096756682 10:0.42893304 11:0.068667975 12:0.074415527 13:0.061049142 16:0.006612674 17:0.0018126517 18:0.12291235 19:0.053079294 20:0.036555511 26:0.024817055 27:0.05170756 32:0.30440651 33:0.28651054 34:0.21961526 35:0.34195727 36:0.35167042 37:0.45294631 38:0.12500398 39:0.32806395 40:0.06433812 41:0.30762418 42:0.18248631 43:0.020052847 44:0.024969326 45:0.12015728 46:0.0053856393 47:0.097575196 48:0.78411135 51:0.0050662856 52:0.19649521 53:0.30291331 54:0.059422958 59:0.0637307 60:0.020619847 68:0.35737585 69:0.2131457 70:0.062523678 75:0.64654618 76:0.089871106 77:0.069588135 78:0.24295611 79:0.33161207 
-0 0 0 0 0 0 3.240443599786589 0 1.186794078490367 17:0.0076017558 18:0.03702586 19:0.24615036 20:0.089092597 26:0.0045747875 27:0.28255529 28:0.023410482 29:0.11163967 30:0.023927027 34:0.23038247 35:0.30401759 36:0.075634909 37:0.0026351359 39:0.10262567 40:0.44337692 41:0.18578578 42:0.0050875649 44:0.078245643 45:0.9673681 47:0.084053856 48:0.08149556 49:0.78844263 50:0.001737091 53:0.14596751 54:0.031761406 58:0.25007235 59:0.0759625 60:0.10098269 61:0.17380205 62:0.03306337 63:0.01963113 67:0.25507287 68:0.15693713 
-0 0 0 1.029827624847118 0 1.8545618132523 0 0 0 31:0.01192289 32:0.13991501 33:0.05928526 34:0.055193689 35:0.020096971 36:0.20512922 37:0.060539859 39:0.0023161213 40:0.016768188 41:0.45394984 44:0.00025895024 45:0.41093753 46:0.056612273 47:0.020856678 48:0.047927152 49:0.086140302 50:0.16332878 53:0.00025895024 54:0.16171594 58:0.0030309348 59:0.020154585 60:0.0028538421 67:0.0010358009 
-0 0.2782236703886867 0.9405665409180395 0.5531211718444298 1.128538341353491 0 0 0 0.6607421529555588 28:0.14844184 32:0.21833356 33:0.22167105 34:0.090894904 35:0.058327526 36:0.22283225 37:0.19252355 40:0.028172855 41:0.84444929 45:0.14538633 46:0.1351133 47:0.044159203 48:0.10555814 49:0.11836433 50:0.32842969 52:0.0059521447 53:0.00025895024 54:0.29371449 59:0.012808951 60:0.013266457 67:0.0073900444 68:0.062520858 76:0.0035576282 77:0.00091755959 78:0.00069590785 
-0 -0 1.14507318857816 1.749340557680043 0 0 0 0 0 8:0.029091291 9:0.057862573 10:0.075422991 11:0.041537467 13:0.024735584 17:0.20594069 18:0.25619682 19:0.062992141 20:0.14120649 21:0.20010204 22:0.0066782614 23:0.027473822 24:0.045073485 25:0.018524547 26:0.060780045 27:0.16342595 28:0.043341408 29:0.033151474 30:0.14653754 31:0.074753065 34:0.20964559 35:0.65707843 37:0.10862283 38:0.20308299 39:0.3086846 40:0.46577977 42:0.061305168 43:0.11922606 44:0.50807171 45:0.33787996 47:0.0012084344 48:0.40956946 49:0.2150301 50:0.012973094 52:0.05181525 53:0.09093381 56:0.0059864257 59:0.18790599 60:0.1342699 61:0.046133979 64:0.0072135189 65:0.045399162 66:0.026983062 67:0.016558873 68:0.52263307 69:0.27697783 70:0.136138 72:0.012907117 74:0.22607309 75:0.12843619 76:0.081531053 77:0.021634014 
-0 -0 1.289878462025174 0 0 0.8963389274245033 0 0 0 1:0.044848208 2:0.10080703 8:0.15438455 9:0.08457745 11:0.020119359 12:0.024237798 17:0.17901003 18:0.25441384 19:0.19424724 20:0.27047297 23:0.0041333015 24:0.0090895263 27:0.12867885 28:0.07954937 29:0.17068766 30:0.46788096 33:0.010057563 34:0.38215174 35:0.51548693 36:0.0090209866 39:0.5363842 40:0.30245913 41:0.081634705 43:0.038995773 44:0.83433363 45:0.12724586 46:0.0010676792 47:0.024526599 48:0.90854344 49:0.014518057 50:0.04499555 51:0.041241885 52:0.5058784 53:0.10612664 55:0.04110357 58:0.019124565 59:0.16657893 60:0.18910931 61:0.26078261 65:0.0061793386 67:0.41548489 68:0.17457594 69:0.041249288 70:0.16395062 71:0.05119444 72:0.026421644 75:0.33363762 76:0.20215937 77:0.042481819 78:0.050019716 79:0.10961403 80:0.07113887 
-0.6464101117532377 -0 1.496665462817984 0.5291334885838553 0.7351785203587641 0 1.303397028587685 1.044549434497671 0.925937805312036 1:0.046601912 2:0.056412401 3:0.21442037 7:0.24876785 8:0.18702877 9:0.20794469 10:0.010102611 11:0.076475186 12:0.14739819 13:0.0062178021 17:0.0070115463 18:0.00057903033 19:0.03968059 20:0.017102727 26:0.0010358009 27:0.11100848 29:0.15845091 30:0.17422082 33:0.0045756506 34:0.9990404 37:0.025069851 38:0.55604818 39:0.15346951 40:0.1331914 44:0.66883568 45:0.13939867 46:0.10215785 47:0.58267416 48:0.41883419 49:0.099517853 50:0.046876079 51:0.078036429 52:0.25831736 53:0.19399115 54:0.073467039 60:0.39897942 61:0.084117625 64:0.051961182 65:0.034006083 66:0.0036057264 67:0.55741165 68:0.36280514 72:0.057155712 75:0.18367614 76:0.26163638 77:0.12808095 78:0.030239665 79:0.33412598 
-0.6559525410003083 -0 0 0 0 0 0 0 0 1:0.085406567 2:0.028016267 3:0.051884119 7:0.023689505 8:0.25501549 9:0.079898094 10:0.12372562 11:0.030135873 12:0.099923677 13:0.10073827 14:0.033929509 17:0.33997806 18:0.24730868 19:0.0665396 20:0.37525735 21:0.0082254922 23:0.030156185 24:0.0059783305 27:0.12002458 28:0.071139008 29:0.07859942 30:0.31178535 32:0.0030941875 34:0.86199407 35:0.01237062 37:0.032203551 39:0.54294727 40:0.40576212 41:0.028180548 42:0.024816327 43:0.20039796 44:0.67332688 45:0.14146755 47:0.0047137325 48:0.89887811 49:0.0014105593 51:0.029689196 52:0.28651017 53:0.13411663 58:0.13654417 59:0.11547827 60:0.091035682 61:0.22119668 67:0.32214051 68:0.27398226 69:0.060526594 70:0.24121001 71:0.30599877 72:0.024293219 75:0.50873799 76:0.13977631 79:0.015828006 80:0.039928843 
-0 -0 2.081759080179816 0 0 0 2.178062902834784 0 0 3:0.080782279 7:0.25003222 8:0.27881877 9:0.16302938 10:0.15602917 11:0.13696044 12:0.22069887 13:0.10297187 17:0.00086316746 19:0.12164718 20:0.010965359 26:0.0012947512 27:0.088113726 29:0.089951313 30:0.18681581 32:0.0086614027 33:0.013086562 34:0.73462129 35:0.25412828 37:0.14937024 38:0.33398 39:0.28175653 40:0.017166618 44:0.52433751 45:0.22536267 46:0.087047121 47:0.2309764 48:0.42185037 49:0.40163063 50:0.0044392326 52:0.00054591503 53:0.19381384 54:0.2208276 59:0.10617039 60:0.17214587 64:0.041647584 68:0.67541165 69:0.32007698 70:0.042083964 71:0.026922827 72:0.024736187 75:0.34959922 76:0.23665419 77:0.050151176 
-0 -0 0 0 1.079357895521763 0 0 0 0 1:0.057976512 8:0.017830214 9:0.052553489 10:0.062031193 11:0.0080397084 12:0.01225637 17:0.1874795 18:0.21972155 19:0.17407882 20:0.11117294 21:0.22341966 22:0.011665541 23:0.028758507 24:0.034902078 25:0.012415517 26:0.04062988 27:0.22533687 28:0.062576536 29:0.032010597 30:0.32224525 31:0.012561089 32:0.0009765625 33:0.0018126517 34:0.30743943 35:0.56847108 36:0.053888758 37:0.013977184 38:0.08037919 39:0.45417165 40:0.57165616 41:0.0081349901 42:0.00025895024 43:0.022310313 44:0.53278691 45:0.20007625 48:0.86052067 49:0.030596298 50:0.017026091 52:0.72993947 53:0.0030260145 55:0.037171918 58:0.21364923 59:0.10744385 60:0.16209619 61:0.31358928 67:0.38472627 68:0.041927868 69:0.011826692 70:0.12974513 71:0.032973672 72:0.00019301011 75:0.43222457 76:0.11629399 77:0.023007906 78:0.028558453 79:0.18151611 80:0.12803535 
